4, 60, tanh, 40, tanh, 0, sigmoid
-0.126747864124713, -0.331068969718678, 0.115550015873997, 0.237768615008224, -0.468841222100352, 0.351453046245246, 0.117544677861754, 5.75061422108947E-05, 0.0292520115753878, 0.0266153945245852, -0.355168823085338, 0.200433254102447, 0.208739583710553, -0.12836306012625, 0.177632501198739, -0.301086897869169, -0.398943679360181, 0.423394757287295, -0.0467112602417875, -0.335985694935539, -0.121168179261111, -0.0680146718248793, -0.191287497846078, -0.129681334192716, -0.148994373459832, 0.379348182994569, -0.384330532925357, 0.0678621994181826, 0.340727955960076, -0.145883171188591, -0.141001548916568, 0.378385251796984, 0.252625456430309, -0.495249551253044, 0.285091119252653, -0.0351758722845353, 0.120131419794695, 0.444852827556828, -0.34538799656806, -0.239163916902227, 0.111890902096355, -0.0581403004741949, 0.276339398592868, 0.0257119697172716, -0.481501894063084, -0.193890809870274, -0.128191870464101, -0.258246238230842, 0.00495660607933845, 0.154035158759931, 0.0893134077029831, 0.448058472922099, 0.441505818134875, -0.13797444367687, 0.47247430122107, 0.441266807700166, 0.3602185281274, -0.254768649933286, -0.113237011531944, -0.34818940509492, 0.235783579170603, -0.450317521556428, 0.159329550182135, -0.324864817236022, -0.332383056558847, -0.233554074882322, 0.447807797672138, 0.203989134963597, 0.0865458206210964, -0.287191626516726, 0.0787816823361356, -0.343796506917009, 0.268782753855355, -0.30754734333956, 0.0521234029681065, 0.436972121213084, 0.155645929582252, 0.28300053243665, -0.148179440129632, -0.455103563589558, 0.00754005345867015, 0.373915705305485, -0.437094406661156, -0.313307202799854, 0.264803421108426, -0.0890600218386669, 0.436879433662109, -0.109400099892821, -0.467723852474114, 0.343824311552487, 0.104605599588065, -0.125099930272018, 0.0580898390887723, -0.497198591473139, 0.0250525039271696, 0.0622084236527832, 0.28253014934367, 0.10120421582889, -0.141904973723881, 0.252052180819238, -0.141698607542412, 0.167818994572302, 0.155207941148061, -0.207851767403936, -0.424746523576205, -0.0668900853800076, -0.320724280933255, 0.249053161474435, 0.309902153355024, -0.464497819992014, -0.214379121882086, -0.422782004309251, 0.393410790196346, -0.158133447942386, 0.144270541446409, 0.361867873865118, 0.486776885104727, -0.027363247018011, -0.0896682383444478, 0.25667696527982, -0.170433508544431, 0.0572078975649587, 0.171712987437711, 0.242721509068609, 0.108202773895209, -0.296118387391846, 0.0981136539942182, 0.265981345328494, 0.16740015273327, 0.489914979315323, -0.345558028130586, -0.445558286246638, -0.0750944938394681, 0.0997683790511305, 0.186595043952854, 0.339721058886368, -0.281292235842576, 0.27075736074278, -0.38856067922365, -0.168306493511566, -0.268335740905411, -0.312173727812326, 0.0806977467521549, 0.4967739675179, 0.0582034334345737, 0.0273876038973162, -0.0185107204683641, -0.283776712968842, -0.141469132919549, 0.163184630062051, 0.0754315385480558, -0.190106603638319, -0.309127545826662, 0.101418060996299, -0.0775143106363315, 0.30109349489263, 0.496106007134591, 0.412486432079452, 0.183945458700855, 0.371371863815641, 0.334996260625774, -0.0867056262617492, -0.418346991258835, 0.319987174039701, 0.381060208138572, -0.268820835635448, 0.152312489530217, -0.206357588854785, 0.15527150810476, 0.304549482560041, 0.143160109707695, -0.283980475638053, -0.138802567794361, -0.421361744832882, 0.0250127061852313, -0.358259780732104, 0.476510150812804, 0.17493901991981, -0.315481924365965, -0.419184830002107, 0.222392333076518, -0.11810963303694, -0.0925495217519577, -0.495784477328781, -0.0855165592327325, 0.344548575507732, 0.363569259580024, 0.323487445164233, -0.322717310312538, 0.385501549060224, 0.343615051751777, -0.193778667922029, -0.413188097958075, -0.25993254303929, -0.00330275413734038, 0.318369885356338, -0.393826736553491, 0.260710572712454, -0.384286240620672, -0.172975730929978, 0.375075114367099, -0.312153131613579, 0.0609517789263985, 0.0539813845204102, -0.479975479645643, -0.140587985813892, 0.448695964156043, -0.387765800993781, -0.423594645188933, -0.219254529904227, 0.324583344079826, -0.178833012785219, 0.227968356445417, 0.103130288702962, -0.351020469260877, -0.0468941063372856, -0.494156104509791, -0.422562513930054, -0.0944962667275668, -0.46348836736916, -0.132390095215472, 0.328825044365984, -0.383640278542247, 0.269769959044536, 0.460934430808264, -0.163061222370277, -0.370792377679978, -0.378870024755071, 0.0819410093044588, 0.206642820828894, -0.464433044178613, -0.28420042189965, 0.0592252605404823, 0.357493806564013, -0.294259944369206, 0.0345454646900973, 0.320938588036661, 0.353469093727632, 0.484191002316862, -0.444928573418841, 0.39585261135169, 0.251335060573805, 0.247082090353166, 0.396537219591689, -0.439081795019601, 0.0224480645369962, 0.0782529756325544, -0.0163183866610371, -0.408912073778413, -0.456408647800055, 0.312525989866129, -0.471264222623438, -0.144793160559979, -0.420797873251512, 0.459414364285494, -0.453749929998885, -0.428512853071332, 0.291181819881863, 0.0930469537121462, 0.183085742724634, -0.269795608133914, 0.327565988911114, 0.0302931897017608, -0.130237466017826, -0.254821485725614, 0.108783765979476, 0.261941726674299, 0.370474549881404, -0.102609766927832, 0.114434066049025, 0.132167305626053, -0.347625198237423, -0.406753516246916, -0.149567693308726, -0.35934097872085, 0.116274844210723, -0.418257045987182, -0.280177498133936, 0.208851754064137, -0.0615136337287322, 0.258685801997169, 0.145526008981059, -0.469957950976658, 0.0383496571045134, 0.394116830962765, -0.493168821555175, 0.360592738660328, -0.0199768662080061, 0.398079442278519, -0.340510014370321, -0.0369416822385703, -0.470243231845202, -0.239577859984514, -0.198894740407772, 0.324867034715073, -0.431713377559424, -0.278958129127956, -0.122680443629008, 0.151358705317303, -0.0478655609990775, 0.260506337862698, 0.207778425751151, -0.413708619733205, -0.0233461398274387, -0.0885759534261077, 0.160151188103553, 0.435489293623478, -0.495225467251253, 0.438543105469338, -0.156860479925229, 0.464507115988297, 0.351664645062603, -0.417669934182274, -0.345439412559122, 0.424399940727465, 0.0846783828850269, 0.297523939887771, 0.491943532597247, -0.0243542969805907, -0.261652664170439, 0.248191027319148, -0.218081407117695, 0.472395107602885, -0.26209975255751, -0.348624251712404, 0.102410537471255, 0.391952661747091, 0.292141224160856, 0.0255652719762015, -0.427627601161426, -0.104767026661321, 0.204423397641826, 0.0684637965487613, -0.243282684936785, 0.17798002840857, -0.449092623753982, 0.0592346287142647, 0.053388188850781, -0.373074389469379, -0.266034357140788, -0.428658115178653, 0.355818205911582, 0.0414800283226557, 0.0549399222037475, -0.305017130358618, 0.111393672698826, 0.447426702337073, -0.394138447425393, -0.123294681135237, -0.259811348169954, -0.229237317447195, -0.270901661725203, 0.401673853351583, -0.0869886305122584, 0.203943411681775, -0.0214122550196071, 0.235383318148266, 0.348391132824305, -0.174721888115034, 0.309013509102638, 0.268198526356462, -0.356651930537378, -0.0207907392274545, 0.366170706630764, 0.447906546736093, -0.239916281653529, -0.216799151486158, 0.325612750754511, -0.0234194409676918, 0.373492564481447, -0.474556245829238, -0.25586424896301, 0.365017922066626, -0.258319939839803, -0.332994548991786, 0.392372821407566, 0.240438564559649, -0.0825448146008629, -0.457082622198892, 0.0399820755887693, 0.154983835134182, 0.286091109172483, -0.0845640947039072, -0.214623379853844, 0.30160971628577, -0.333865364936118, 0.302749544290243, -0.34454757293898, 0.0527739033814398, -0.300607716571823, -0.184475941902248, 0.21084349588996, -0.271889923034185, -0.182087898572016, -0.0342328834972497, 0.427993815358725, -0.123391054860964, 0.175309321691892, 0.107033375467655, 0.434899151294911, -0.171807175815016, -0.378186048417439, 0.129280993542299, 0.00321275438331659, -0.285255102340716, -0.473373068484186, -0.135919583791829, 0.159993793191385, -0.253994081520473, 0.311570590274209, 0.238149180420744, -0.182071867250871, 0.305473755023197, 0.285296036296196, -0.345970326031544, 0.482107417183978, 0.227912164166529, -0.30616735937361, -0.435439009655006, 0.28177191167221, -0.0426658259437726, -0.372251578547178, -0.227161152626928, -0.222811724395869, 0.057968506383695, -0.185399741719197, -0.483974325928825, 0.0471058206386425, 0.275912943657447, -0.260988364350511, 0.0157638762685302, -0.434870757132243, 0.310421809931482, -0.391981773493803, -0.288210748596215, 0.0331698835516209, -0.343189884369816, 0.412223150912776, -0.429368277513128, 0.274982784769955, 0.302054218855712, -0.357244248901142, 0.409446508581492, 0.241203313107231, -0.0387568969925665, 0.497595925348623, 0.405369740866762, -0.0571859593303809, -0.336117572540472, -0.0163403006812279, -0.299918348807804, -0.317223695487354, 0.110748331346898, 0.325261463795445, -0.0224350227613165, -0.299555597267838, 0.34897510420949, -0.147907282061832, 0.445244247999622, 0.400144639378481, -0.489398742555361, 0.316974595569528, 0.384080849533938, -0.493005717169962, -0.204193285994322, 0.173019937552987, 0.00750632281764707, 0.197455528517, 0.0735067848924114, 0.120859790416835, 0.325297301553794, 0.315689013253753, -0.376799081860482, -0.210421794424961, 0.479717692816499, -0.185421577042631, -0.28169808712867, 0.0316355342658402, 0.315945172596697, 0.0603725810350723, -0.0907694825859598, 0.0732116334015558, -0.116776606820885, -0.207746755661325, -0.461070015542707, -0.167012428244116, -0.0456190884791404, 0.485160346136037, 0.130453249267514, -0.488655151328377, 0.184194779342131, 0.304717397692016, 0.466978902913154, -0.329512916891609, 0.264381527325316, 0.485079623286184, -0.24132509843508, 0.402452225751454, -0.054603400898447, 0.288223165454447, -0.00991039746902433, -0.292085787650238, 0.369307255777208, 0.0430226370426932, 0.158362397764978, -0.115607362061556, -0.440424613626872, -0.178829874228141, 0.345543770978946, -0.337013445718686, 0.482142489860832, -0.182660430056351, 0.036147545341471, -0.115128333035451, -0.00908587803555927, -0.0626103759569164, -0.0662487976095866, 0.0918276051952632, 0.468064298372746, 0.462819142249794, -0.281360973967873, 0.0223459766816096, -0.432997720750513, 0.0621619362207884, 0.436665011074704, -0.479420096138222, 0.348710110340598, 0.452713835031127, 0.0251966782497227, 0.494638069530315, -0.44409647860755, -0.184150312880124, -0.413761064835713, -0.47227799285775, -0.429717021495903, -0.298683694935722, 0.203904377624348, 0.340200756136421, 0.133890846573697, 0.154537346518849, -0.226587814617244, -0.366789214250999, -0.360383424842909, -0.0325333050138006, -0.470797641189209, -0.133144790601518, -0.231430147649455, 0.0821072359486051, 0.17957296114395, -0.173008096717767, 0.0513284208957704, 0.166847296369657, 0.434387927378708, -0.0174225431482413, 0.0695841394223199, 0.467743625849366, -0.359088066899724, -0.192854680443581, 0.106357625967989, 0.1377824939032, 0.0356825275978457, -0.393138448657998, 0.295973447522136, 0.350905701448631, -0.392916967111135, 0.166292802740956, -0.268899365220638, 0.00842553819922054, -0.185411311539547, -0.210402183099837, 0.233485246418736, 0.0935504462539919, 0.457936758621566, -0.186473048146103, 0.189406956867039, -0.414571759716874, -0.117270598475482, 0.0995355842632872, 0.0329595774099973, 0.0698098016762221, 0.252010051511233, -0.233397125608007, -0.226859126112824, -0.30179522503251, -0.0566903513654556, -0.110943774977207, -0.118538240258833, 0.103661478312528, -0.0418621322800695, -0.397460647345269, -0.439595628035998, -0.103240941932071, -0.266156869831568, 0.496108352670496, -0.381145181078997, -0.333449365959246, -0.162762661773135, -0.21128912629154, -0.139616337902665, -0.137090443930165, -0.364245425380881, 0.260144314151324, -0.232481452511848, -0.110024855756212, 0.0935066568634969, 0.457777974641779, 0.20891053774809, 0.120860975524812, 0.29317049998472, -0.0158441008608062, 0.0850142243248477, 0.0413763488369884, 0.274185742146422, -0.463452175708233, 0.385772442391968, -0.230920346794147, 0.333720677454826, 0.0977686725546461, -0.092403947185913, 0.218026807866072, -0.215168957000211, 0.127439156466834, -0.44971232952071, -0.287950664194278, -0.270806555063839, -0.163273811649193, -0.14029268391444, 0.46182840595107, -0.305327867067106, 0.022856322826285, 0.248190902056261, -0.405981472183942, -0.260848077834047, -0.329949978659838, -0.0659447729428973, 0.491865737359908, 0.499084326903841, 0.383165729643389, 0.104698118103993, -0.0144683260072341, 0.180145687274703, 0.260600784216356, 0.310490978327808, 0.473981968580737, 0.017525128329883, 0.0190280231270138, 0.122573315921507, -0.302704694123336, -0.389664089721471, 0.34977516571515, -0.167170043414072, 0.239468665672219, 0.381114820894373, 0.142356854231263, -0.421921486929954, 0.00831541815228543, 0.209856643672034, -0.44453078831757, -0.339218300692373, -0.24321953148731, 0.0980706585562185, 0.24708213179702, -0.0738111574080825, -0.229685822841565, 0.235964997082932, -0.00900430349121073, -0.197775573328964, 0.10413572080626, 0.102492597234665, 0.393906705032059, -0.230004673697988, 0.450554947811437, 0.493070554450653, 0.422064378821321, -0.462118879408631, 0.0242302587834328, 0.316948178139025, -0.423694298101447, 0.194524207475839, 0.210165421809147, 0.2141528724293, -0.337587989791105, 0.351492495672541, -0.155103032782256, -0.309973633759643, -0.491277763615957, -0.287096293078315, 0.0967950679346896, -0.408028491729884, 0.425739808904817, -0.217990906312126, 0.443615115221411, 0.222384030335762, -0.152082350408697, 0.387461015436547, 0.433063555477682, -0.165588058375562, 0.0401768011693735, -0.261983028502196, -0.473470568178906, -0.283196403544022, -0.481562404884753, 0.0948027086419997, -0.28357079475353, 0.079779839413138, -0.117724991225509, 0.246398111221566, 0.459050442073052, 0.104475733639894, 0.0538482542866134, 0.19136724001326, 0.133550941773481, -0.139054995793409, -0.04938372250152, 0.0426275960833894, -0.0643413516526768, 0.395589636124479, -0.418708124625826, -0.419712189081922, 0.22724276069889, -0.221925986744846, 0.205414984292197, 0.0121474815226753, 0.176456411344922, 0.111904022539857, -0.173632769531414, -0.271811898743305, 0.145102810498471, -0.465389884797448, -0.395182401372291, -0.3101558875073, -0.223095258072624, 0.338253234735267, 0.167997064652394, -0.00663742291773748, 0.195747753566074, 0.0676941694562023, 0.135067283235714, 0.265116034697802, 0.307751403926447, -0.237681799214442, -0.246146749788248, 0.49237003175226, 0.0381232244421434, -0.265653508146903, 0.148462128365272, 0.0826699838344989, -0.228231308215098, 0.305275776622961, -0.0481976049598998, -0.462534225605628, -0.246880103410278, -0.0401603145022166, 0.0107718846933968, 0.248437440923491, 0.0114874472196451, 0.00627293989506395, 0.41804286237614, 0.104614950248404, -0.246592901922631, -0.34555213944877, -0.398805993570966, 0.424444176971133, -0.00042026504534663, -0.136381397832781, -0.0854042414658514, 0.295263399606278, 0.192946312553447, 0.457253715455706, 0.346916926806487, 0.368049439945408, -0.239473639215592, -0.184321303127259, -0.227463465776361, -0.0350801543526704, -0.475767386573747, 0.213512332440919, 0.474041020487078, -0.0576187680087585, 0.463357778628158, 0.243670855430244, 0.45637168893186, 0.339826415422594, 0.0821532110983964, -0.432642316171875, 0.436674309260968, 0.316888905989168, -0.17259483072988, 0.419571973922487, 0.481988316346009, -0.310501462761949, 0.149851409092462, -0.469545301726379, 0.0117283035148438, 0.153661450178318, -0.338849963272393, -0.170405135026684, -0.00733009135507968, -0.325909041165916, 0.319778040075242, 0.353179579712319, 0.389719566861706, -0.185376564798747, 0.458377670147873, 0.0837062862888635, 0.276957364765038, 0.436945542701446, -0.312643276864462, -0.454175684686962, 0.224198764364918, 0.298249144104624, 0.0322321685105062, -0.0244362650807722, 0.141087044488049, 0.00968948886277759, -0.302051183386477, -0.238618614314167, -0.158369372097402, -0.0675029617535832, -0.0726519568950571, 0.0984580533751603, -0.032365234378159, 0.273386666922209, 0.475095138131401, 0.156569984518165, -0.281512523131719, -0.269996992274325, 0.304448672425299, 0.118887572263082, -0.196199059746703, 0.194832742578424, -0.279550807672089, 0.298862921342474, 0.122605836191618, -0.389755511671745, 0.353988797647361, 0.142764265324447, 0.381485897253505, 0.499050223429833, -0.209782669873026, 0.499753062796876, 0.129529849217588, -0.218340833965436, -0.304640072962617, -0.316276625911754, 0.157214457667596, -0.326144936074633, -0.110560060656832, -0.497972188650753, -0.044052931238333, 0.399696741412916, 0.48776010885118, -0.439652550191538, 0.246768075943832, -0.277922818100269, -0.114551744403124, -0.383669844056521, -0.160753563819753, -0.199092649785351, -0.134735573686164, 0.0469491537427123, -0.36751224495542, 0.0684623753159448, 0.242015858631716, -0.470622286039311, 0.0778165609498158, 0.232285341518063, 0.353068557972095, 0.0308486172597124, 0.155699294713637, 0.0558141401616412, -0.120102632536159, -0.157399674148412, -0.358081545573624, -0.0724212866649806, 0.468183626612775, -0.313911252567934, 0.0780342791568489, 0.291543483286126, -0.49973904587216, -0.455408794340985, 0.340554179126493, 0.302429416606509, -0.337057134310515, -0.0958565775228172, 0.207069920065735, -0.339891378191604, -0.446813990037526, -0.0994597180754851, 0.224740891057827, 0.237663230272176, -0.197356237699216, 0.0805794301862381, 0.133787309001383, 0.243441277789237, 0.367278172740494, -0.438940748890692, 0.0396438036030469, -0.334007529272647, 0.105908143061856, 0.424924693819148, -0.179176506931876, 0.358590955704238, -0.15367128482896, 0.4001352767815, 0.0197995331815196, 0.145160555009337, 0.418428208063326, -0.180817130014531, -0.246120366497657, -0.300640491259827, 0.0382927083378478, 0.0477029796407771, -0.199353374067256, -0.179336649012646, 0.206397837641271, -0.169941074283503, -0.0944794982646009, -0.162127292774055, -0.177706198745973, -0.0822870181790383, 0.179098758122503, -0.0474741373757058, 0.306053345471379, 0.418036561019829, -0.246832314787868, 0.299319455788772, 0.208813283981027, -0.101524696895674, 0.0603138916814254, 0.407117254227619, 0.146445666996328, -0.0879580653250807, -0.314364529437087, -0.424663736746873, 0.223776792056058, 0.481964140656408, -0.043899383651225, -0.237192429300364, 0.38434382758853, -0.438089940863068, -0.258326014505936, 0.234003140235054, -0.353339318302783, 0.025435780008611, -0.300629582636143, 0.25494074866478, -0.220068551515347, -0.186877848523968, -0.462956955525482, 0.0372060679538727, 0.155546012608889, -0.29822955208846, 0.343698792392492, -0.311805197094531, -0.254173528262179, 0.368297287827483, -0.447462369092132, -0.0717074184466786, 0.146967646982845, 0.2204798929023, 0.436348812159313, 0.0199528893083114, 0.258868984300117, -0.153237522883917, 0.0529138397206151, -0.373749134071986, -0.137932524382105, -0.274689907568828, 0.0968859775908691, 0.224433696700462, 0.373958177340197, -0.357287069250498, -0.0464711219754401, -0.239616693341926, -0.323960884392243, 0.445095636856321, -0.19413477773505, -0.219382423311184, 0.218665558248137, -0.00177284679458145, 0.0193879839588832, -0.104308966362993, -0.138570007234146, -0.476892175607799, -0.248428872669315, -0.0553247186147257, 0.0683431492970992, 0.497440589590669, 0.329510347838286, 0.355479202165957, 0.429426539656439, -0.472191963797525, 0.11583992914103, -0.336136065347184, -0.374438374710473, 0.221721134018954, 0.475134150113507, 0.299898203834844, 0.472521929057558, -0.426880343783125, -0.107126993875544, -0.445378643900798, 0.21623617397446, -0.187388386431797, 0.163247890613623, 0.0128330679204469, 0.248241502208748, 0.0833153862428457, -0.487844234792443, -0.199269719747486, 0.0624323676165344, 0.271920024311133, 0.209627021900204, -0.351259511360554, -0.298908091056584, 0.040657778522306, -0.341477103457543, 0.235761159907915, -0.404808650214602, -0.391761441664659, 0.0579077166309151, -0.135373113972774, -0.104200255407114, 0.241406775424912, 0.295007157044023, 0.346150141137722, 0.0268730016084728, -0.210335056628257, -0.365178318631453, -0.0456820184111977, 0.469961486742814, 0.00596701843010583, -0.191904352368742, 0.145545902031262, -0.394645852919037, -0.0352333721403188, 0.179454859662547, -0.451181620802349, -0.140140066221422, 0.238738059410238, 0.196433779176527, 0.485027763054253, 0.485284824383112, 0.0287800675857719, -0.206953165450577, -0.342493484654694, -0.181818985697729, -0.0329005594984165, 0.4627720257094, 0.0849038467672206, 0.0631982374764971, -0.260627009794408, 0.204706854049446, 0.364283370722217, 0.0152119395859595, -0.47175387990277, 0.158821611506316, 0.474829398549548, 0.0176044565241804, 0.317097749475901, 0.485960066311974, -0.0414234411629957, -0.0515062951257016, 0.0578377836187546, -0.1692312064903, -0.443534650813571, -0.0361756233201249, -0.435918880131058, -0.456613658441516, 0.236325281083735, 0.361202918859759, -0.390295482655193, -0.124098773870663, -0.143546709624839, -0.0881952208411858, 0.0728799535766617, -0.120657938355886, 0.367019677007114, -0.0516400591245108, 0.137500641698716, 0.0279691268354511, -0.440226438893111, -0.173107082337657, 0.0499178346013268, 0.391119744112305, 0.230588496537222, 0.30126016438066, -0.0561877230909596, -0.369666037554697, -0.422891973016268, 0.305945016353365, 0.204625461112999, 0.0312139226734703, 0.0427621843026775, 0.252777993098264, -0.262142779660478, 0.036534058179955, -0.0725529592356425, -0.301988725923928, -0.263418514637006, 0.193682138665431, -0.245900105566671, -0.0762869010569001, -0.273553255374335, 0.223700927907462, -0.0465062798683095, 0.363471764076255, -0.151746436325715, -0.047521408436597, 0.442331986009298, 0.148904058453117, 0.291801934499201, 0.0264694576740588, 0.380103814825464, -0.21087137735955, 0.426186505205085, -0.368316358825339, 0.398575870272972, 0.166718039506449, 0.100180296972478, -0.244794815194232, -0.479987900229165, 0.433747157423639, 0.466278314574751, 0.43038026473037, -0.34342254225324, 0.0784905946713362, 0.333139041826659, 0.103675297276897, -0.326052441180708, -0.463654104603293, 0.451895020879756, 0.169008402931042, -0.288221544487505, 0.443818503033285, -0.226130767597878, 0.136060462163789, -0.399553826963321, 0.326216906693865, -0.0623739760193853, 0.367116732460967, -0.0469933992936245, 0.491333685345637, -0.311998023563995, -0.0717960314693842, -0.485856918145836, -0.32184399656106, 0.151110107848006, -0.246366438337772, 0.326591487893179, -0.393826420835139, 0.137958187906983, 0.260729001257908, 0.0978309771035942, 0.481376300557226, 0.173670038894597, -0.17964726299031, -0.0425652156316513, -0.203933520104705, 0.067123470160702, 0.375003125460354, -0.469667277750404, 0.244578266397388, -0.221468967255889, 0.405986090612591, 0.19700903757336, -0.377206468431841, -0.185308997838436, 0.436285311792179, -0.484740609761672, -0.209873956958705, -0.468762531862018, -0.427641036420893, -0.270907984474165, 0.233063564511511, 0.302198584099393, -0.471321585574803, 0.245745180987634, 0.0380743460441354, 0.416237182876206, 0.478421454307819, 0.42738048682333, 0.0795054801644317, 0.277083809383718, -0.43222602034557, -0.101612292510277, -0.308833980378152, -0.428822574172552, -0.269597845044731, -0.229851535861311, 0.453516495392433, -0.321374322204559, 0.304379693141384, -0.240906563466837, 0.0626228985202605, 0.336784010211371, 0.208428334308988, 0.212802652601526, -0.217984114176586, 0.231194930957255, 0.391349550286005, 0.363465001277376, 0.214824796055828, -0.2616258285761, 0.0364654448518834, -0.425063888973121, 0.0655992243278768, 0.0316369857320734, 0.364767412592083, -0.320822283542167, 0.144991624469399, 0.0746075560220553, 0.419360438324213, -0.120170702980911, 0.0887020158528825, 0.447622638637024, -0.0491727579148359, 0.46749445701367, -0.289242946910319, 0.00759838312286809, 0.00584301795151221, -0.448383894259289, -0.415711152793705, 0.16613684765349, -0.438257105154105, -0.388499634754145, -0.273142225003402, 0.313265527045944, 0.166469117005574, 0.39627955430014, -0.406229750209595, -0.184124238176329, -0.0362707048357794, 0.30687941508688, -0.475112367409799, -0.385043546969557, -0.287444309232498, -0.158868691259468, -0.259381635468165, 0.492837868627551, 0.332788483161846, 0.159529033889775, -0.293589986764635, -0.448775561502564, 0.125156839669289, -0.121091060629623, -0.240734760528773, -0.0754496038777053, 0.17039142068028, 0.115000259883236, -0.114043231873793, 0.240933877295318, 0.0020455995118458, 0.274417502700546, -0.274648086994257, 0.339733444545294, 0.279176154071082, -0.451312051597662, -0.323368723421995, -0.0750349203939712, 0.348078336030281, 0.252333697281933, 0.365167868726499, 0.468487858291943, -0.414592533332572, -0.170884137354272, -0.389121739142165, -0.387518976762667, -0.145058335571111, -0.0262544371775605, 0.235066947869522, -0.390304066655368, 0.226876092481835, -0.28208081553787, 0.174809899961022, 0.346313984061738, 0.345206092505346, -0.466935591291141, -0.4590199920158, 0.182833955475518, 0.352235125774627, 0.302307378874303, -0.357125893634337, -0.448531142877662, 0.0103227861739336, -0.147163627504913, 0.313830162311825, 0.189311792463675, 0.0815275020811369, -0.314845811955093, -0.164219701040638, -0.336132257634835, -0.335499967837473, 0.315653284925806, -0.35524046740273, -0.419545214120087, 0.294361165163275, -0.262077845056578, 0.465816971830007, -0.203959022976439, -0.231969321487457, -0.353215783766106, -0.430391268306594, -0.303354142142159, 0.379933312013714, -0.223739165218426, -0.485942215186517, -0.215873584950284, -0.400392397260476, -0.120962071055994, 0.494527352039948, 0.246111745362222, -0.492292059581863, -0.00620267889751247, 0.0727299538314017, -0.454229042844022, 0.10945959091627, 0.313699011604161, -0.041834927881991, 0.232571094172341, 0.0152857003339034, -0.0784335316058404, 0.0309535211561962, -0.330212523616018, -0.362034736136922, 0.0711992055043574, 0.445195901182106, 0.411222807556029, -0.42684034813514, 0.0943551140811085, -0.448047181101538, 0.107283937561924, -0.432752563121148, 0.24493903096064, -0.0851967230370253, 0.205450909540733, 0.232698647180898, 0.446228248507822, -0.328464454891376, -0.265938048607641, -0.161221412318396, 0.029703747262109, 0.0897041897241512, -0.297510426862869, -0.309373163995041, 0.0896685535971394, -0.343840198052973, 0.170702711060039, -0.257076668905596, -0.401011424558708, -0.0290048050363571, 0.480662153559114, 0.279757082825413, -0.266754122342334, 0.280755276689658, 0.346464210118383, 0.115830695077698, 0.399821255309424, -0.441319406005237, -0.191265893490643, -0.168935066400531, -0.397165022742546, -0.289033236815144, 0.00525248865841543, -0.172914889954457, -0.112756585521976, 0.17886430848337, -0.237231090542502, -0.421005955860487, 0.367279044290669, -0.18692769002492, 0.163231342408448, 0.142163466495538, -0.27589687927435, -0.106207493509263, 0.485581953071794, 0.331862278670008, -0.171536051980935, 0.479160640379023, 0.0482967102659385, -0.0849605964426699, -0.225506809877933, 0.168299476461624, 0.474171076423568, -0.376640080882534, -0.428709334660652, 0.32752685473651, 0.334001559221186, 0.464183754270982, 0.0683390668445915, -0.410379785536965, 0.332877391871473, 0.387547654513059, 0.362801438599267, 0.40299701779289, -0.26405638957585, -0.181263015922747, -0.415548298934264, 0.375404463091588, 0.303383421526935, 0.41080424511377, 0.39339089248953, 0.0917086669205263, -0.124355713196264, 0.285916265466212, 0.307763852555195, -0.161501312936424, 0.0556539620997636, 0.339453371166928, 0.295173323617863, -0.485398068551625, -0.212633252941367, 0.420660614930401, 0.0103838837288245, 0.393694702952027, -0.443428256522598, -0.0654644992041702, -0.263204313238712, -0.11810743045905, -0.244205555293805, 0.059716559741514, 0.344862749262183, -0.201414844813484, 0.0106549772949214, 0.277658829827634, -0.0198050818963931, 0.275683687895389, 0.279362027896271, -0.17889389706724, -0.342151103933412, 0.166844968994542, 0.247410577604273, -0.0469405150725229, -0.324222781147912, 0.137492465152169, 0.0216485110678004, 0.18278452320154, -0.207344810342111, -0.311745189042643, -0.184403933437729, 0.232791978275772, -0.228127107363253, 0.494548188054258, -0.330989569346881, 0.0537371353962166, 0.302253467404402, 0.412216776941073, -0.122836229215765, 0.46910673564724, 0.346425274315488, 0.30140810962832, -0.418058702684035, 0.202559131524786, 0.119610018385393, -0.256333138214579, -0.434058504148414, 0.0948057373030138, -0.418946310374395, 0.0979854569761015, -0.194278652637395, -0.467919835340194, 0.0591366591673049, -0.265452140832996, 0.181604475100341, -0.371671645376678, -0.232808646155898, 0.334307262131156, 0.244883396078312, 0.372891418576656, -0.127953808115774, -0.126212779724138, -0.358119688862059, -0.451459124196069, -0.433703497021321, 0.023002466430423, -0.212156332895233, 0.350314561207925, -0.370425275466603, 0.456917841898705, 0.475405362423233, 0.0679781411625343, -0.101480082888845, 0.310255292249031, -0.0253191713827286, -0.143559213561732, 0.0849036716785765, -0.455148553920513, 0.333449466542084, 0.432110357066668, 0.0715509693005826, 0.426842773764787, 0.101730833575935, 0.194669732681787, 0.382533463594752, -0.216484098097535, -0.326344680891533, -0.462674966530257, -0.187056287046082, -0.459317923970203, -0.213454218447886, 0.467946205273246, -0.33266661913724, 0.00427235220757893, 0.0970605437630138, -0.0273619459603736, 0.159527798490379, -0.466599578487966, 0.136262628546107, -0.40339244804503, 0.455823194680653, -0.284373065356339, -0.0347689872303833, -0.3758641522731, 0.122580094552869, 0.23774320620007, 0.133560247548651, 0.248881366918274, 0.259867030549732, -0.174836311337927, 0.0434246829447451, -0.277660092235385, -0.499142204410928, 0.312773039011645, -0.198659550723927, -0.0547965818805604, 0.272056386699926, -0.0527894215438466, -0.333992587790821, 0.282780601076214, -0.150652852678044, -0.249481366364975, 0.0373708482540077, -0.4111073514964, 0.17037206034659, -0.492540842850013, -0.0993552397002258, 0.394247564903576, -0.286805251513983, -0.497957225422355, 0.196912987947889, 0.0515032501665424, -0.0914111824666202, 0.236841914587115, 0.476287162386015, -0.144075965343079, -0.03838823900483, -0.0224050141509646, -0.427910361871082, -0.355209742605318, 0.149955654353814, -0.0752260478098067, -0.22254199707999, 0.487780024291845, -0.00274260691494804, -0.435794126212501, 0.467088409684174, -0.145439658148885, -0.297068097068494, -0.348142874356426, 0.2005816673397, -0.287682779965775, 0.367393009302855, 0.353482027469893, 0.247260404633014, 0.205304561045628, 0.178256086389653, -0.123661635733983, -0.0462362126196903, 0.115120937402882, -0.162901554099704, 0.239312682645075, 0.0356866184322567, 0.257824255972087, 0.128250700714183, 0.491921432778203, 0.313751090231236, -0.235984118998043, 0.33648587662563, 0.445416414619152, 0.48359165712427, -0.205538599149109, -0.124879059672765, -0.478782845185503, -0.3671750532776, 0.424573195131763, 0.473060630715015, 0.0495908239621626, 0.091635255418548, 0.106166186559091, -0.459629252534187, -0.453915581551341, 0.19131566197207, -0.438662377157557, -0.198538892762055, -0.0154042320863363, 0.184110240863687, 0.0551067900634868, 0.489581509954101, -0.229017398659614, 0.177667948267268, -0.414726603270847, -0.476168801531274, -0.0430312992739637, 0.307691811494386, 0.410642971708739, 0.389087333757937, 0.0196337469479226, -0.140470676422338, 0.00533596030684935, -0.249545216443737, 0.203072528682217, 0.0180744652254854, -0.242484511687646, -0.331734531480695, -0.0938797335111907, 0.337196279706991, 0.346175854488358, 0.220657080747493, 0.322687209501251, 0.232243930330614, -0.371334737572509, 0.284703108847469, 0.347597600821218, 0.0747501899370692, -0.208985972548363, -0.452002979326995, -0.0256510044101863, -0.0436368512658574, -0.35634506719948, -0.192188808085485, -0.241355699832251, -0.225565628952144, 0.0655032752852437, -0.232251533648116, 0.398318260395116, -0.229369797617835, 0.418152239601199, -0.286474656679889, -0.277818024986339, -0.464514138626174, -0.0465731162329079, -0.309938499615499, -0.413700704888301, -0.144288596997172, -0.162701781216404, 0.0280099532231735, -0.0661998263402841, 0.393072154323138, 0.395340840749136, 0.147399488206673, 0.33793438637533, 0.334449709315994, -0.33310569954715, 0.0387386710097728, 0.0490026858397772, -0.199429712118315, -0.323766402352493, 0.382218510788967, 0.0166777840427486, 0.362645951035733, -0.0852616618318771, -0.43672940178622, -0.284125609222858, -0.302475231607666, 0.491810483388515, -0.0713618423656383, 0.452571189940242, 0.48976702196047, -0.230052791875812, -0.364509935893356, 0.419044040105792, 0.132650511168246, -0.00152489426616809, 0.287201348127425, -0.221182953436478, 0.43860376204299, 0.19840381373577, -0.00811380218160984, -0.262548028846527, 0.263004074228464, 0.114196847013289, 0.0812768412666753, 0.061022307985007, -0.00374455540615348, -0.0301231944608145, -0.0758054091482449, -0.392459929404994, -0.473235395724529, 0.218745780512106, 0.0977479725134317, -0.405603395265342, -0.464066271187768, 0.196847559277363, -0.140463976022072, 0.120747523205703, -0.109843714446688, 0.474187109607359, 0.388774526719365, -0.136099080385686, 0.408660061149234, 0.0754387632829318, -0.0559668483007545, 0.12312494619895, 0.259850776642491, 0.228355448100881, -0.294716124792917, -0.164025396417838, -0.120307047674575, -0.240078375553749, 0.110398923796787, 0.102166474145915, 0.184347399829117, 0.144766539635494, 0.253673709814285, -0.251550895977556, 0.333461496901448, 0.00224829022877304, 0.219618946183295, 0.227647962853149, 0.0676158925367594, -0.178901912960644, 0.425806585664771, -0.228978758551636, 0.172199235610757, -0.458906540628013, 0.38311031129356, 0.435802951890883, -0.361060918244096, -0.333546175078278, 0.388660761010209, 0.464416652435631, 0.309629287016405, -0.372014721795923, -0.171208089995761, -0.312434689054468, -0.329836304685956, 0.458151895067725, 0.301171531342516, 0.267899996492965, -0.235407069667898, -0.411780012730407, 0.227847118269581, 0.26684297982922, -0.391653143284681, 0.495581498367517, -0.0899507950944597, -0.108832810823262, 0.443173849463078, -0.388913080044516, 0.287286026304255, 0.387907995324539, -0.245431836575936, -0.338873436133784, 0.296285027077554, 0.0875619741098779, 0.149632177618161, -0.326988089749118, 0.450925710588193, 0.218757317270505, 0.345245136807321, -0.2305190766838, -0.302964478173742, -0.286760872596298, -0.128739136563958, 0.145982271361156, 0.292537187129509, 0.0563621216250407, -0.184025370368746, 0.0661083988687529, -0.4217145912916, 0.375309601833722, 0.201076758886258, 0.45171894969033, -0.0369449674789538, -0.0206040947328341, 0.0932509687697752, -0.341036394164449, -0.337325615266955, 0.17661773724324, 0.131044254466446, -0.00805687788317766, 0.492629102427805, -0.47214783819958, -0.120832201382533, -0.49924723431433, 0.209848489011567, 0.148502723150189, -0.168299748873478, 0.241229935894362, 0.037933133327371, 0.497151785063162, -0.492773815520468, -0.417585785927989, 0.422654859685644, 0.495112007015903, 0.391184465443336, 0.0146079908658787, -0.104417883606822, -0.0376354146458374, -0.296955688761992, 0.3536870832805, -0.424807440454516, -0.122934549405675, -0.467198488752916, 0.411976424470533, -0.313168763561719, -0.197150786266267, 0.19807153134517, -0.183110878189612, 0.494311005340103, -0.0093314282173903, -0.489662474482163, -0.225692026655046, -0.412286937195941, -0.146697985309501, -0.223148179111606, -0.330816639974162, 0.334071328786235, -0.129491902249629, 0.436133782349589, -0.35596553602068, -0.275338129501482, 0.0747446937368925, -0.471824734458618, -0.418866376354763, 0.36808341735419, 0.118662544814247, -0.470935909995314, -0.0320569744948563, 0.0882114398238303, -0.421357022096104, 0.263381489442373, 0.200309799378882, -0.0264265739947681, 0.277357171185947, -0.0832494374286614, 0.11556365183348, 0.495050650553336, -0.0328086258530657, 0.313921529247389, -0.093000724722166, 0.45043119180502, -0.485188870683866, 0.246918930554259, -0.452735438455239, 0.486814259545325, 0.232918211134578, 0.494701151267952, 0.0693528449951452, 0.218260186127508, 0.222001105417498, 0.180536662079644, -0.474925981357194, 0.0262308030045735, -0.440990152741312, 0.129025212781981, 0.00044786580859113, -0.151109814947056, 0.451667887601847, -0.456106992883658, 0.0681686916240345, -0.226214876270953, -0.269871494159974, 0.228677681986558, 0.415668027436206, 0.227287082340236, -0.189972273861045, 0.300734547339722, -0.189644108381888, 0.43655145211916, 0.161288169054914, -0.325867290527498, -0.133120045360699, 0.0565865685029824, 0.0291345070717551, -0.3063967278257, -0.290149258817616, 0.327825763182633, 0.480910703996621, -0.405680635900088, -0.364834793780388, 0.123961393546295, -0.0402887549904589, 0.249682839377636, 0.366210334406332, -0.101893684175747, 0.238307470799567, -0.325921003625691, -0.085436421253456, -0.351668041596035, 0.416302696762747, -0.233326533219463, -0.456617237048511, -0.0767016329694081, -0.254247162376646, -0.366785848451213, 0.220302685964993, -0.213866552670424, 0.331250903118053, -0.180022520795475, 0.176786533406371, 0.432183663794856, 0.18434525964984, 0.132801392875985, -0.443027982927406, 0.047868395944996, -0.186343292559657, -0.0315125498601759, 0.497096295932818, 0.365406575084388, -0.0808255284004032, 0.172622102625958, -0.132020518943677, 0.357348523501935, 0.40872780089673, 0.444207298077739, 0.314073878719506, -0.0195543335376095, 0.362467347580226, 0.0175616552659313, 0.488979611542681, -0.364051268962174, -0.113829032851803, -0.33797606691228, -0.479751142963585, -0.105385290759679, -0.36925005368347, 0.44358158730877, -0.189166269120425, -0.10407964006192, -0.0266994127856488, 0.423717293644089, 0.496574997004235, 0.160933224005722, -0.082467168958089, -0.297018457531947, 0.439616133900793, 0.326909647396389, 0.19271082228905, -0.181658211883559, -0.41555039162184, -0.230179979116927, -0.323017299559511, 0.049156971784234, 0.229157486789859, -0.256319405863253, 0.398693984407237, -0.313965760585577, 0.0145705759121648, -0.198454460527436, -0.180859727835567, -0.260143011783902, -0.0763339907027882, -0.186310808493898, -0.169002111905244, 0.0408378036218866, 0.0460126951596456, 0.0223213264365718, 0.112552637533899, 0.162357321600092, -0.0828815589233036, -0.129924881614885, -0.342346359323137, 0.101175940318346, -0.107894008612747, -0.0045428218333529, 0.176047242563112, 0.207046255390545, -0.0601843069279487, 0.205746258472503, -0.495408823945398, 0.487163934477065, 0.28773486089688, 0.0441255870409644, -0.0668879062871906, 0.219159590889191, 0.458966070123654, 0.337013964948897, -0.0671335536292863, 0.276654337048081, -0.00411370817230068, 0.445608478000034, -0.0707998194907103, -0.490757853337829, -0.423274760892787, -0.266627653175128, 3.73705352914366E-05, 0.182702406153456, -0.170061971141723, 0.376714702029652, 0.156968666533859, -0.0826694031504829, -0.285634354215866, -0.467831295813552, 0.400884028162433, 0.214374043833336, -0.387832756267212, 0.0757393860700648, -0.343263005060857, -0.266362929347212, 0.0676333503647471, -0.308346807764118, 0.246221939724404, 0.308809574099879, -0.203030909681432, -0.167973028517783, -0.0481780634681521, 0.379503932983259, 0.380235425064498, 0.111767255379191, 0.081988909940221, 0.208998739000484, -0.410595343261468, 0.33587409626526, -0.333397622975802, -0.0276037594207257, 0.441064258851243, -0.351634471500541, 0.0244901083653521, -0.341294980918513, 0.494978290721081, 0.492999846568799, -0.122652839847442, 0.0632117703652872, -0.451374348012865, 0.0876575835084714, 0.272804208197525, 0.257313043573008, 0.140944153626596, 0.218738068868728, 0.107027000960861, -0.116839792689287, 0.179962785682939, -0.300810360484667, -0.291024240813727, -0.195580026082702, -0.301464357298177, 0.120186713534064, 0.212534947826219, 0.245321241034906, 0.281089913179383, 0.124747849838486, 0.303061819603493, 0.217811165166918, -0.206347896878305, 0.447527267177881, -0.173031133582296, -0.122845194564867, 0.36393350203373, -0.0710500334526827, 0.274036665803004, 0.46394746424588, -0.445594693183635, 0.509465345176918, -0.263136971283933, 0.0745681945215044, 0.314294433594216, -0.31755088865961, 0.25809667517867, 0.209260801841138, 0.0591694248429897, 0.196510754621418, -0.263340159221578, -0.339208584492071, -0.495059915140575, -0.300973008614976, -0.472722335264418, 0.390007774074373, 0.124909128510272, 0.360001592547163, -0.226629762844192, -0.179142702880452, -0.0642790829958687, 0.278906541781873, -0.121617781703842, -0.12514544333856, -0.309146385346676, 0.1590281781838, -0.231158615302768, -0.398913866936524, -0.243942075442793, -0.107101335621807, 0.391935696015548, -0.285964124137945, 0.444513482037214, 0.145495821028467, -0.168266354508777, 0.181144344237528, 0.448732839877361, 0.134502237321142, -0.0100691315921994, -0.484802251237657, 0.360138989091634, -0.497171540774784, -0.31411132289237, -0.409443905460624, -0.115903071580974, 0.140468345317292, 0.214277613186186, -0.403807697530083, 0.418753453942238, -0.0614931358824721, 0.251257651149258, -0.498438988870954, -0.346691360293554, -0.0478764476393833, 0.0261972685779465, -0.229207909030413, 0.121058662618666, 0.363525716693366, -0.115061646553645, -0.344752221270895, 0.421004912706072, 0.16647577837673, -0.049678461422075, -0.334747861257447, 0.300866246526443, -0.478608001470721, -0.284893326496437, -0.138688356670323, 0.366956896101692, -0.148727559988516, 0.429417049143677, 0.490503600004818, -0.127502172647942, -0.241283132860798, -0.0402478450281885, -0.0669461092910856, 0.0924952711597201, -0.212877714090091, 0.488861213110881, 0.0503454356233331, 0.445520893036658, -0.328275270809872, -0.317403442340703, 0.321877010041185, 0.143111040260184, 0.391907539923698, -0.44067633534169, -0.00654647250635112, -0.388377415428981, -0.442502314052379, -0.445198604652497, -0.403629901756592, -0.249663015330275, -0.164193005644805, -0.399501202376023, -0.299486314991962, 0.0443520792998923, -0.478933983107769, -0.214583007649357, -0.139247025364204, -0.0759587000654852, -0.147945321631971, -0.270686203899802, 0.07720240112241, 0.00831372459075823, 0.258735473983208, 0.129334651673443, 0.395838771505811, 0.487753163734151, -0.402331506506282, 0.178085582174462, -0.170029661001737, 0.371638088000482, 0.332604830433503, -0.295419379160477, 0.248167722501025, -0.0226172267717153, 0.129510243114549, 0.024830902373101, 0.407179397061965, 0.471034691456027, 0.23496769481269, -0.254266781094347, 0.312162228999173, -0.213104522168094, 0.325906760515483, 0.239816408341825, -0.462771403246143, -0.342619542104787, -0.23001886773301, 0.380231311045248, 0.0669380079369389, -0.494255473106849, 0.130040340901862, -0.37516549430003, 0.0924111259175295, 0.440659950969663, 0.0968804382797144, -0.188642582553348, 0.383080092167492, -0.240147845290981, -0.33811202012968, 0.00242939924242836, -0.478915429885983, -0.117908065947057, 0.230986662232873, -0.27448876057147, -0.0749011169357824, -0.3838980388479, -0.145350557555621, 0.223132931352257, 0.416986152684578, -0.00135071458352551, -0.121704322834962, -0.102997086486799, 0.199583625699154, -0.406731649149991, -0.0773141911817521, -0.215290866704115, 0.170838542637505, -0.482982276754919, 0.093756276724514, 0.238589011695054, 0.234576044331243, -0.285730480080826, -0.395195833800125, -0.176256328224573, -0.257238703402873, 0.204086664583752, 0.117269777897118, 0.299636419291541, 0.366771120675491, -0.185705259982738, 0.137473120030268, 0.141687387338884, 0.303359806465154, -0.27787091753384, -0.273991439783354, -0.0733939425257683, 0.0554062291688411, 0.108995411439042, -0.16874976911779, 0.412743980197492, 0.303867502048564, 0.0363135572161631, 0.450906120691198, -0.427399636192356, 0.128779318646004, -0.268524591478839, -0.0667431813239543, -0.011715549721906, 0.0168342595347215, -0.173915996695721, 0.137787221018713, 0.366444382642531, 0.169559040186179, -0.0771052856932875, 0.263104781812604, 0.306880383694451, -0.22400462932785, -0.0958319713721281, 0.481862953737055, 0.211365422335704, 0.00881991113727055, 0.0584167120105998, 0.356673076745289, 0.109920546241436, 0.366312307254671, 0.225361396144109, 0.0950012806821308, -0.0208263472381349, 0.374028308447488, 0.496856672975592, 0.229491994765691, -0.431083832148841, 0.192336240936663, 0.170041790082288, 0.439027785761577, -0.304432038929541, -0.245472860085038, -0.468950642978239, 0.196980249336747, -0.48909663782853, -0.217359854500518, -0.372748779620991, -0.221357767044991, 0.0405708372909307, 0.175487948407252, 0.268941582912801, 0.472627036124875, -0.125324165127817, -0.0470576396558259, -0.082091545924145, -0.350046970702146, -0.350559681573852, 0.124760986248844, 0.11343081119533, -0.0947203663495836, -0.260108018032391, 0.17830787760673, -0.153185972419319, -0.288281830464968, 0.401206093615226, 0.136577136285847, 0.447062754472071, 0.106478497228179, 0.0237824543476201, 0.0966135192484133, 0.0681038121733752, -0.324059522425824, 0.493640553003108, -0.0157372880513511, 0.0739412132733435, 0.0506591171531803, -0.253352466997868, 0.210152576485627, 0.471870127473847, -0.0717948038138876, -0.118690468422882, -0.221095464726021, -0.184617320296318, 0.433132493450343, -0.407802284848894, 0.251760243344798, -0.27910742483784, -0.47405840119136, -0.0373458683309924, 0.351853508678352, 0.0761110400904531, -0.0547876006092225, -0.421479856731839, -0.230891140824136, 0.197538780302598, 0.0159265395533843, 0.408899720123504, 0.319139387627858, 0.294764714136314, -0.122884686346932, -0.166783209615431, 0.0158272614247478, 0.2547517180112, 0.44423597148542, -0.39161539300872, 0.0961143103887771, 0.482427102327891, 0.390625482141715, 0.377833431336521, 0.364618525227648, 0.400186249279063, -0.0687374582511932, 0.1519644470308, -0.315723067620579, -0.477247667678066, 0.465696709050777, -0.137293845797008, -0.0852169162084546, -0.38039755881692, -0.349206778775105, -0.0884699415955764, 0.417395442469079, -0.354043673889044, 0.172448514165169, -0.478120272402631, -0.374364157160903, -0.405120969090935, 0.215338400328643, 0.288571290954219, -0.444667801125517, 0.14087422566132, -0.0724304121601139, 0.41628501351393, 0.093242831872356, -0.404776551677844, 0.363848353349673, 0.0249404001390821, -0.127832774668154, 0.323886909745688, -0.00417379390084915, 0.270581553026167, -0.173984796170597, -0.354456143565561, 0.0961792760012122, 0.44853881453031, -0.366054174723191, 0.291665017970868, 0.395860784708241, -0.249814094011574, 0.241418754908424, -0.353592849581217, -0.00366942073662172, 0.196467558681501, 0.139006776133061, 0.463125289799625, -0.0873080881726076, -0.128701414398041, -0.419956205476456, 0.419353459747709, 0.487287754104865, 0.00180076660414619, -0.242730588368449, -0.39794610203835, 0.324114265340669, -0.27661861703578, -0.0195041658358866, 0.0256099336343382, -0.442382396634727, -0.412971642786772, -0.348507319691512, -0.0645499691877874, 0.476175439886096, 0.088689272169606, 0.12244548387459, -0.127322255466313, -0.405060951859822, 0.27324025953732, 0.0525796114239831, 0.226350012201732, 0.392574919955624, -0.168942386167026, -0.305910594737761, -0.023208844737773, -0.45637598902519, 0.407275132288323, -0.348729722639167, 0.225382217226147, -0.241454196529062, 0.132212744986685, 0.177327529829933, -0.00806509594424564, -0.0525366566476559, -0.0493342954267692, 0.33498441516034, 0.495348273312079, 0.00798788339276423, -0.272126958175469, -0.174760855116851, -0.131562942273386, -0.0353772161709758, 0.111214485661007, 0.22842684953701, 0.305401044125609, -0.409230363683851, -0.198167989664445, -0.342033165062449, 0.402086815246951, -0.421720011887929, -0.231288995739826, 0.386379711732409, 0.129020051732336, 0.321012161874043, -0.157679068194744, -0.476005016795722, 0.154375620042504, -0.199483394246428, 0.287431040560353, -0.453817645993036, 0.41869425712751, -0.416963189818017, 0.24838693813242, -0.258945841242801, -0.0753345660882875, -0.0900649309921075, 0.161595479715796, 0.504093103554718, 0.0416831629490494, 0.251458585124673, 0.123712957862928, 0.36030404948444, 0.354264836242737, -0.060050351148649, -0.323450891611139, -0.247629565976634, -0.227488938520828, 0.103831875215534, -0.108468781098602, -0.119136251754001, 0.254811706726127, 0.249445436133727, -0.258537743662872, 0.14826332130758, -0.492533096774088, 0.249124208321105, -0.455191680113899, 0.175399121439016, -0.412548534746472, -0.0913030935107386, -0.315689943939863, 0.191639190968339, 0.221660541945959, -0.317840548545102, -0.0878848944418638, -0.213242391919741, 0.226379369542194, -0.143575049838395, -0.190722627279932, -0.0997703531334896, -0.0765594584773455, -0.200620822487976, 0.11578349517839, -0.349687146130089, -0.049403667446218, -0.100023244693086, -0.471908939762038, -0.310916418055902, 0.137622795189142, -0.397306582783732, 0.262861614357497, -0.438522113438115, 0.407810878635121, -0.0908008005110401, -0.214153895748309, -0.338515154083167, 0.34193500967132, -0.403725201325399, -0.250634977819567, 0.170908999911302, -0.134245252976377, 0.496591155463493, 0.402246021241982, -0.383814044322625, 0.0672162062728153, 0.432217093819651, -0.354635337650654, 0.18254787472628, -0.463966849015087, 0.392008805998307, 0.0251226387118277, 0.411661082027945, -0.214701089232249, 0.477734311534071, 0.451701757945942, -0.0513104493686623, -0.37360448773355, -0.405901139250158, -0.301742943145523, 0.101678392401524, 0.229063950869725, 0.351399967378876, -0.46809547193717, 0.487252841233964, 0.153627827750187, -0.378468099369196, 0.288720423248839, -0.184712958976739, 0.384169015825131, -0.267862923586197, -0.052194581846228, 0.126299121384015, -0.392868103099983, 0.135509642988061, -0.455013842063327, -0.0724880306862478, -0.0977142826695226, -0.00770987521997312, 0.0861147226355225, 0.0195103694077183, -0.246037706703227, -0.152973967285753, -0.350782780839787, 0.243594132044583, 0.0780238925302015, 0.346996677204837, 0.27182571235641, 0.414755499742832, -0.0505574028407952, 0.346715602716493, -0.461535348305717, 0.256974225974786, 0.399718417942363, 0.150885809787663, 0.435715940938415, 0.00483514943572305, 0.467148407643015, 0.415264839956515, -0.0292072120070872, -0.0625940104884136, -0.349868045950897, 0.3317937824115, 0.291567733203457, 0.285430716162024, -0.0524946348878248, 0.399130152423169, 0.316156276199044, 0.152187334578494, 0.449906086955931, 0.0253474237850463, -0.454865961230814, 0.13375426974185, -0.00382251033484636, 0.157521737066034, -0.152405437716195, -0.119125582281427, 0.194658145200613, -0.210213536648704, -0.0864480054508358, 0.31133456501827, -0.142083347396302, 0.365570835192303, 0.366420243072263, -0.460447702724254, -0.291299144773353, 0.190657909148086, 0.234513168342597, -0.0357452354092598, 0.190923926477613, 0.0111762929087373, -0.0371806267158959, -0.016348431991462, -0.480641591624762, -0.353154536444198, -0.111275741439958, -0.0777607685418146, 0.0552755810284216, -0.137452598106424, -0.19899127084315, 0.176859843503186, -0.468372648181073, -0.388428312981682, 0.4568728534356, 0.413669663133797, 0.304114930421637, -0.090475323081091, -0.244359689712384, -0.282206792206566, -0.202240227600642, 0.0644025783589756, 0.307760076719073, 0.182182167457327, 0.00096781999992944, 0.163241932856746, -0.424572431247661, -0.236677252469516, 0.469528196718819, 0.251707463280381, 0.0846108544654366, 0.245519943372408, -0.333789978268956, -0.148253710235561, 0.453353548731654, -0.0870336631907065, -0.432575857519963, 0.0623486568086515, 0.113958906776743, -0.145865465026997, -0.201399929703192, 0.421676654293771, 0.322365376615197, -0.163646715385462, 0.484111309148192, 0.237667866831542, 0.283221634866009, -0.261292863162811, 0.404202718222127, 0.440698000355309, -0.260111529556947, 0.300620549681501, -0.0577265738070338, 0.0166784258148291, -0.336506361415857, -0.366181815946557, 0.226781197703635, 0.290803731603838, 0.49004402514214, -0.13514111113579, -0.440276325763667, -0.398339818109948, -0.0447617262958236, 0.302172935591817, 0.278246967385842, 0.0499095468984498, 0.0164800872161269, 0.180293241734458, -0.334396594681565, 0.0512999624280502, 0.351691667271021, -0.254758800612801, 0.287119152808168, 0.388737738120496, 0.414679232774892, -0.129917393133607, 0.238636260129511, -0.0300094027560885, 0.193714907825113, 0.263686268365544, 0.381411033918413, 0.344046321761368, -0.13547455545168, -0.474980228969136, 0.00744289149444138, 0.281455586928333, -0.196897218005063, 0.146619127243551, -0.309779489651598, 0.328244841007973, 0.197078850874504, -0.217503611219135, 0.0478638805113251, -0.244271700313336, -0.208530143324364, -0.307128302451387, -0.0276249364813291, -0.4788663233827, 0.0576250093400196, -0.0631110347975065, -0.279106298473747, -0.402199911915594, -0.422347105489795, -0.13747771533169, -0.403322628307483, 0.493604039452518, -0.481637540174077, 0.0446577119182326, 0.100200407495437, 0.291075983920297, -0.109915519468231, -0.251284854151339, -0.408718086003742, -0.272161471023895, -0.0210860203290834, -0.280758386124808, 0.243757192266143, -0.062750695432572, -0.203982351804631, 0.497317342543734, -0.260614947697713, 0.366440739198018, -0.0095574402375327, -0.167091331700591, 0.347596216463444, 0.0682787572596612, 0.181625201251713, 0.0322759671536108, 0.108010680908968, 0.227063387801065, 0.398519031461329, 0.223581305078716, 0.416354938673582, -0.246016638586772, 0.0438964900871599, 0.281495512951541, 0.264405911369357, -0.499937305287767, 0.42685328694887, 0.0157222588206763, 0.26679192433196, 0.264263179200356, -0.451935556910778, -0.100856941277844, -0.0656462130167914, -0.0536509914206986, -0.311262203449358, -0.167370667070542, 0.276455017214841, -0.427540279514921, -0.0472840033107762, -0.461974879553915, 0.211149067556221, 0.0605922844195548, -0.304209993412908, -0.146523421756171, 0.109281570261423, 0.246663731651903, 0.0172859138362685, 0.0266800456352903, -0.186461263047174, -0.0164218355820009, 0.438706812891259, 0.379064228485983, 0.393950120150335, 0.163343105806518, -0.16640489349499, 0.334615464456527, 0.184802033598798, 0.199054084541942, -0.0467237293086314, 0.240758271807291, 0.00729445267260131, 0.280957751404499, -0.270110522617981, -0.0253034841476937, 0.319030047859042, -0.40830093937517, 0.397008166830646, -0.0991415815559958, -0.123684230107747, -0.156381043866716, 0.255132771166457, 0.0307238128552695, -0.232326936948763, 0.360529013369494, -0.496089906986636, -0.145270795970106, -0.438285336472868, -0.312645631057581, -0.326967173804669, -0.479327657231578, -0.0124501856089261, -0.104847581014728, -0.296679499898225, -0.217859900760339, 0.324091854386333, -0.332367607520349, 0.00532220818090637, 0.269172217456532, -0.386594957841739, -0.142602774342178, 0.152483127723862, -0.419454023080703, 0.116555049046389, 0.209613060976647, 0.0296591539582943, 0.435240590768013, -0.169265849359883, 0.219958268297645, 0.036231312495791, 0.0160988830557619, 0.347230119604609, -0.385905683352354, -0.350755759577618, 0.465836194168963, 0.228687130461672, -0.0931663324528409, 0.111579795194333, -0.466554586996539, 0.163084163467116, 0.477852537957198, 0.273972852096726, -0.00586454771503203, 0.0249348518810189, -0.0709856035945249, -0.246853574513479, -0.393537450874819, 0.0779496541782804, 0.44929569760484, 0.147758221464322, 0.151786389823108, 0.0867317171609313, -0.372895884949223, -0.212820917572802, -0.481575562650451, 0.192528268690041, 0.170021608064309, 0.415933297930468, 0.0583618098320374, -0.170139934820845, -0.435597322273938, -0.474910366103892, -0.164179228057634, 0.151126701703661, 0.156047534449748, -0.327056965630958, -0.129194746341432, -0.248544453616437, -0.270157930860935, 0.0555113347884806, -0.0820534501881575, 0.0548543514664243, -0.0348601392743408, -0.39418908485362, -0.364847664121806, 0.0823042007543351, -0.344828544533856, 0.0552444206268455, -0.31512209286986, -0.0410515683076662, -0.0757699860772725, -0.138338812773099, -0.114854056034747, -0.432014694999152, 0.383894299357148, 0.429508740962551, 0.213831187169344, 0.326964493982962, -0.36938787136299, -0.224378712264887, -0.447636058438609, -0.00606636138584257, -0.443134668140578, 0.2012761893436, 0.0929813376057103, 0.451922910653092, -0.066254904055353, 0.344336020530781, 0.368624353400404, -0.239930539383472, 0.380063689686125, 0.355046283935569, -0.15938728506743, -0.107107202075853, -0.272703810031878, -0.404678996648323, -0.385931742757356, -0.478379715239359, -0.345657433507123, -0.0666631532715215, 0.0369647781807963, -0.379472231503332, 0.229530915715421, -0.403489293597232, 0.404933871018512, 0.202433977921606, 0.137524605577963, -0.225161313552503, 0.267556502889057, 0.225925362316709, -0.0472374648219911, 0.0463193520952013, -0.38164992153026, 0.459207176738887, 0.00131985753645407, 0.425909357385691, -0.00290256428979732, 0.2694485387687, 0.00137192310981934, -0.316329693573794, -0.350318097300594, -0.191298491678642, 0.183547416959747, 0.424215079014718, 0.0787731842021676, 0.0684870494205034, -0.480213528284863, 0.49061214366239, 0.334677760981517, 0.289501432569138, 0.316098682434258, 0.19897707583663, 0.175968331120313, 0.197006974502908, 0.237461881111033, 0.431978399121099, 0.258507006013344, 0.460327690336759, 0.296969753557663, 0.396000950193559, -0.188862325442022, -0.337484633347413, -0.419767469749445, -0.358489418611469, 0.303687346931696, -0.166926201010128, 0.234510749094903, -0.117540740975248, 0.392308855302081, -0.192897072263403, 0.097494906710668, -0.156159093705406, 0.0130484095030724, 0.467871496166386, -0.22011156315241, -0.272234832787655, -0.0663002741292599, 0.305094212191361, 0.0206827740462175, -0.163579655645192, 0.182747579863081, 0.150953147117002, -0.0615490770796451, 0.47630544067866, 0.40804205996495, 0.253384114662929, 0.369737900077548, -0.0729662498378717, -0.278859476450456, 0.0686267300046669, -0.339188596129629, 0.0380770588130847, 0.473119353204339, 0.111883601867796, 0.373780374481494, 0.488443619961515, -0.272251244630923, 0.0443388997487315, -0.387342927915932, -0.254620248764625, 0.334771506504569, 0.136420992242797, -0.406795619351714, 0.0269533956194114, -0.308347201213071, -0.0295997250080353, -0.313790012315476, 0.206348983777382, -0.0912170387798532, 0.00945434944441524, -0.00123607191962407, 0.457047012798423, -0.0561187127284053, -0.0414907938989902, -0.28741697296542, 0.159474368393227, 0.218815331219886, -0.396105226652032, -0.267649298628179, -0.44546975240803, -0.0374732776259774, -0.190726333203324, -0.337846727497095, -0.176708104462663, -0.356837799776153, -0.440647663382954, -0.128972128609709, 0.400763936172029, -0.399468294527111, -0.202175086428734, 0.499870823119958, 0.388904866597222, 0.188441748066745, -0.228946254990085, -0.00253851422481916, -0.453598713989813, 0.0523342821610903, 0.410445980365945, 0.284506286684655, -0.0623589772703383, 0.0677609465833921, -0.335258395148946, -0.482813687669153, 0.211673044956089, -0.430824046162333, -0.293430749349317, -0.404701245906692, 0.0134312942804778, -0.101096559222386, -0.288762077998752, -0.238542430090666, -0.375163592721127, -0.188090617465381, -0.437741449801164, 0.285356419458332, 0.026167759297077, -0.0267691236598227, 0.275299184668135, -0.117735416956631, -0.36726688291546, -0.398901742526336, -0.215321739873678, 0.103093475803371, -0.38885718641913, 0.00951178911857902, 0.107806310647611, -0.231510941951104, -0.329561580883577, 0.458899669771304, -0.333547861099068, -0.392037601620033, 0.312981019022951, -0.179250352360084, 0.29201772443533, -0.0131542844342438, -0.203130293438709, -0.213238218378516, -0.0496124710516679, -0.246647671048153, 0.437680848489286, 0.463946906634661, 0.358743104640646, 0.00246281882938306, 0.386089115705367, -0.468020958603585, 0.375030742211547, 0.0773414864265887, 0.125952034737174, -0.00692792733116771, 0.475555849808611, 0.0721774042937613, 0.276616469256947, 0.0278050794357619, 0.151454024122695, -0.163721224622644, -0.217412188881396, 0.0557374591161895, 0.405850364211147, -0.297891869772597, -0.0396654556076696, 0.43814362781265, 0.42500479955912, 0.0534511289265148, -0.267553926161509, -0.396771933103455, -0.0481703365516841, 0.305211437608032, 0.0171558865064221, 0.0751425954446289, -0.0150381067711938, -0.265695389814885, -0.476032275356351, 0.021849340077997, -0.054710669860701, -0.331040510230463, -0.257591839578576, 0.282147638076991, 0.222896690518906, -0.421709202187717, 0.134534995153299, -0.467821113049683, 0.142148703307012, 0.180415441949733, 0.483364420026878, 0.0942707352701576, -0.169196338832296, -0.214833604410079, 0.168115767388486, -0.0417758730262523, -0.295491901761715, 0.242079022781583, -0.114278447491123, -0.251614810961984, 0.292863593369229, 0.49944060570804, -0.461134355811651, -0.19514119296682, -0.229991097781493, 0.282824993158281, 0.0810124063458682, -0.430172820326583, -0.439728941473796, -0.448823871486076, -0.495475171990561, 0.240861831231342, 0.0482095426002674, -0.244839820479558, -0.41750234086481, -0.0168974789711188, -0.405796971428422, 0.000373002952712053, 0.332807321288267, 0.327557360207456, 0.0675765422953184, -0.0718360280486923, -0.204073143053834, -0.255913818607067, 0.0700771503942447, 0.138171970210118, 0.272335670316748, -0.333336755090084, -0.362859593640482, -0.441155000096725, -0.129370393524585, 0.242882763847188, 0.348857432533455, 0.275689843006288, 0.228759461887534, -0.0541713552336075, -0.37019428185662, 0.4371627857616, 0.0122307802141788, 0.440065104486451, -0.00269044074355179, 0.064705011232153, 0.471907493645282, 0.0909862395333993, 0.176392616087754, -0.257591675854098, -0.453936607089795, -0.424219259025631, -0.297358617557845, -0.314740626986483, -0.135980566328382, 0.20413507414243, 0.409238564739581, 0.0581638387209568, 0.180701985340892, -0.135059548837626, 0.203533828586123, 0.294858343338062, 0.235168281353623, 0.131837031166925, -0.489503805055052, -0.0856615289047647, 0.432686986835993, -0.49857386294686, 0.180546149928377, -0.238356761512513, 0.392098977645905, 0.27252023190843, 0.026399473904818, 0.136696365492743, -0.146994068122932, -0.342958105654902, 0.488142224488846, 0.392775351597357, -0.169752199048992, -0.497128468936835, -0.0437435216939745, 0.204940617412767, 0.0676935653051797, -0.172331173751657, 0.0921085772999136, 0.196554929342379, 0.464021862467761, 0.451881033346001, 0.194825566231658, 0.166494532332986, 0.333644199107608, -0.209306406187502, -0.405012142334605, -0.136180989274839, 0.24229481618027, -0.165052625194682, -0.298005495592023, 0.380393749047254, 0.429568909541503, -0.417028911838787, 0.13201802439616, 0.470481356592142, 0.410440089605022, -0.0852506223997337, -0.149690653500003, -0.226456838998225, 0.0493812670695508, 0.0659450169494119, 0.332253441136448, -0.29302246067348, 0.215992849653583, -0.483536786857777, -0.272083962230051, 0.177830454277727, 0.408683972856348, 0.498593211173356, -0.272835221967118, -0.0925005448947198, -0.460271546132989, -0.186058734397431, -0.0496833913725258, 0.480805953489992, -0.193399429178517, -0.485948382404609, -0.0720009606201206, 0.101405383833407, 0.177532374243034, -0.337419536820343, 0.394401549312473, -0.48194144292825, 0.455047389937121, -0.392251524558408, 0.463206442055854, -0.252723287210205, -0.129146493332994, -0.0142248782861162, 0.294500527807744, -0.347055812295087, 0.477359479748346, -0.181434583701861, -0.352826337727172, -0.101923154481651, -0.380372407790447, -0.0121519730948619, 0.450501682679402, 0.317180985965385, -0.437222443957451, -0.0828425966123317, -0.0448649621311878, 0.243701605006914, -0.392217403227565, 0.294495049302697, 0.340665295180243, 0.115627643938934, 0.132654479533739, 0.151212070906168, 0.163880785770659, 0.396388472009631, 0.486750338220387, 0.24890396266659, 0.0960107867587408, -0.113199196110107, 0.171543467636939, 0.314194884064698, -0.248069850610602, 0.108244374211991, -0.446743228913631, 0.480639324980154, -0.193023052389279, -0.0770911488575354, -0.295907316634388, -0.425779409672031, -0.0698600246430654, 0.221163037568872, -0.33323239667026, -0.447760236890875, 0.361178361280439, 0.318752543916345, -0.436450065084011, 0.110818053414495, 0.0386278277908582, -0.239625029144634, 0.207445425310845, -0.34930005569444, 0.410275960299315, -0.339447659365576, -0.232916819738651, -0.15242120188308, 0.114622233256056, 0.219641435760838, 0.321894335943225, 0.398112055798113, -0.333806150515474, -0.271544482918244, 0.222554629539398, 0.260372858382935, 0.22653337788141, -0.194567291855145, -0.26408212248426, -0.157742691532589, 0.263924214879016, -0.417861768937605, -0.389819544223053, -0.467773813273652, 0.0396089216413018, -0.466437993555534, -0.135644926054238, -0.380497742388629, -0.051139959390806, 0.0804147164246136, 0.290033709625729, 0.345128241854314, 0.332838537093642, -0.124067715194108, -0.289723865124268, -0.164364184096625, 0.179355378579048, 0.0208435233313793, 0.403918923765383, -0.408622191245026, -0.158838806049358, 0.205677972969449, -0.133982908275902, 0.0873355118498838, 0.10101451519924, -0.194019372432502, 0.408026740843443, -0.298315541724821, 0.498608408029474, -0.0936052550531948, -0.174293614772285, 0.0557456531355836, 0.0828346664006052, 0.221292626448578, 0.346893838535479, -0.0435104032715365, -0.349805484921581, 0.175219238584498, 0.111091022664258, 0.376713953854849, 0.296197266688662, -0.352419077350022, 0.398718757507726, -0.465792483168557, 0.429607726135108, 0.476766094088911, -0.434726481295529, 0.290261564678634, -0.481820617793976, -0.113081186363977, -0.418982520196113, -0.294310145449969, -0.0984862156205281, -0.355459931239234, -0.498903885483231, -0.441753758090434, 0.216121139338296, 0.0228449439270632, -0.068788328472892, -0.266371705926197, -0.374464734398976, -0.337329384329417, -0.379106150418104, -0.457534704337611, -0.245291668803101, -0.265711943509854, -0.237706424546291, -0.388454089354935, 0.029038446270413, 0.253786538147268, -0.314558699175044, -0.495863860005449, 0.409752500667122, -0.472795030089465, -0.204819457933688, -0.306419728699336, 0.306959215461723, -0.168190425107344, 0.157727785714775, 0.124248421110329, -0.259292891136973, -0.382234823835192, -0.316494923930846, 0.111689594393451, -0.174622734857082, -0.379983469322316, -0.345768131243888, -0.0617054023601605, 0.220196511931809, 0.288647596625913, 0.240368457390167, 0.127349571151356, -0.25599243294261, -0.122537271409546, 0.251178688253825, 0.133526651018079, -0.473312926931918, 0.356253461845337, 0.279499185634544, 0.195319669644963, 0.214472518635202, 0.453727608059406, -0.238776881591779, -0.235607155941244, -0.298522487188933, -0.423118660190664, -0.204062646117091, -0.125691185531063, 0.349359526694454, 0.307515843216104, -0.248712973552157, -0.115688435554359, 0.365117158212288, 0.30696325041678, 0.492921185210776, -0.492229910563785, 0.479165539601429, 0.0092042551884447, 0.217088030519471, -0.365308199480785, -0.419943812265966, 0.323998977813869, -0.108650601286744, 0.2403908496445, -0.486581919242899, 0.0580917296735997, 0.260128572937161, 0.0322897720766672, -0.22397371834329, 0.161653891048233, -0.333106801767418, 0.450705753616386, 0.052310389258112, 0.462408116069812, 0.409775902475126, -0.213020499196379, 0.356542057756587, 0.419112232010398, -0.0897879184176158, -0.251504074666418, 0.324079176794774, 0.279923054287174, 0.0889350709453854, 0.412680668715705, 0.0373605701780695, -0.143943107055474, 0.262232412939068, -0.06295568335939, -0.115458456620322, 0.24340859881761, 0.15436111141665, 0.0174828178796371, -0.360834568674133, 0.144807385115329, 0.115263481910929, 0.390473540821333, 0.0623782093461501, 0.0208322687637211, -0.249025236698345, 0.143385783137468, -0.183247233127825, 0.263647581806242, -0.401717467187772, -0.312294364353779, 0.140622644983522, -0.199418727168543, 0.332001175187529, 0.402709042142475, 0.397187347941653, 0.205941684407155, -0.348771968320372, -0.439946692408969, -0.40100782639394, -0.0314078948141113, -0.18938737627556, -0.19986686655314, -0.264936093131516, -0.0213312700024486, -0.296969720533569, 0.157361187812575, 0.295859316734532, -0.176915743703449, -0.352251771303011, 0.0326176807449381, -0.492707517613417, 0.149410323597723, 0.311540322255133, 0.407503101030138, -0.152854908615823, -0.480697588665525, 0.224598438455903, -0.164289804588789, 0.168137468708741, 0.266826298152771, 0.431743155986691, -0.439568405268555, 0.181640784796379, -0.0987705648414127, -0.227941871406268, -0.263220643777929, 0.0240556537287443, 0.359523099243323, 0.0398569686925338, 0.178598112893645, 0.0921805671379773, 0.0943078043022604, -0.0815093557639158, 0.170571022769206, -0.165805242418993, -0.18486965157213, 0.1554096332691, -0.416290520520218, -0.182198007087051, 0.0936124193362946, 0.347526654099744, 0.493668454844333, 0.115898224564179, 0.0656648499731682, -0.319587143986071, 0.491212264578374, -0.0109590494698245, 0.424498171045858, 0.055564408591275, 0.377885713597046, 0.481340392667962, 0.315518470400127, -0.108085683694929, -0.16783412545913, 0.036848949011008, -0.249818992575419, 0.118492612166978, 0.333834462981454, -0.293389293392888, 0.466250982119919, -0.366694530105117, 0.436335941469718, 0.283227287551587, -0.0308506232721102, 0.440437115700258, -0.0870150241759204, -0.269080417288904, -0.359033003890298, 0.0733082419779488, -0.467984309860038, -0.136107905725971, 0.140894186100828, -0.48209156029198, -0.425474750997679, 0.419300139225305, 0.438072830144512, -0.0554161365747539, -0.384108291965199, -0.279183420836839, -0.218968058664127, 0.247736133113804, 0.0995574477829518, -0.196037499026243, 0.16197868328273, 0.197241904100282, 0.276662935895918, -0.297608057376511, -0.413675034284612, -0.366275625315092, -0.416057933920221, 0.196637735774205, 0.321576402848715, 0.377101544217471, -0.148443809642981, -0.039726012056586, 0.411287261623263, -0.289560208774086, -0.353249034070501, 0.125226768492437, 0.267416197414108, 0.260505215777936, -0.151867850593595, -0.148809808529138, 0.0235526845042526, 0.0140324080849415, -0.159551422905035, 0.297610442943985, -0.182608054337212, -0.0873001528368543, 0.0985108747820961, 0.305679621732768, 0.00216593098948012, 0.113354634836684, 0.425786835882063, -0.281484787324096, 0.0337479142933676, 0.132373507505071, -0.378745851839969, 0.271388731818753, -0.336225753452759, -0.289191556458671, -0.355692368089546, -0.493069144291929, -0.0107052850799828, -0.164630937386311, 0.0423172524180759, 0.263380487608177, 0.166384149962813, 0.114349562526925, -0.492005409737853, 0.227531963751998, -0.202471151836206, -0.0094442029565645, -0.0466099757877599, 0.0205725771442056, -0.100333019427084, -0.251617735285758, 0.280312457921202, -0.352020278606578, -0.143115580489426, 0.479045180221082, 0.384986709802615, 0.173467476987484, 0.0349522239896526, -0.221352044757027, -0.305879020499609, -0.291442781539699, 0.451327724809053, -0.366961651431602, 0.426535159246337, -0.221186462860796, -0.410675367955439, -0.12513675611205, -0.0385485707374789, 0.0567227510292935, 0.115520083785946, -0.159169952387971, 0.361894433448556, -0.311825667413686, 0.471669021243989, 0.0767309777163659, -0.368726351965296, 0.203168480797884, -0.0952422950262196, 0.371156715901054, 0.0078675051656836, -0.488230998217676, -0.340370125757013, -0.0948452854685644, 0.31875911303453, -0.21458425744831, 0.351661417569704, 0.473390064956079, -0.0849270960937737, -0.315276228062996, -0.174406999148348, -0.028865004910666, -0.0277113435904856, -0.289221179844853, -0.358743424060019, -0.166166386058326, 0.312212475475349, 0.0331955952522326, 0.187655384679137, 0.229127697111086, 0.138448048317984, 0.422738498014363, -0.47069022712532, 0.396598334937964, 0.404887247462255, -0.441258696428766, -0.112219464299115, 0.0924352114538139, -0.323754251519751, 0.280120968855313, 0.347681291739298, -0.3182019035753, -0.23160192407132, 0.163812699094398, 0.270769425445747, -0.317706622748798, -0.450963389886394, 0.0467131222874103, -0.183411466666323, 0.140766388634092, -0.0729323678699462, -0.384084665626028, 0.459711130980074, -0.22367277996813, -0.26903487532212, -0.3554386809466, 0.36862081685068, 0.150973343304778, -0.452998492507275, 0.137930532457042, 0.264322283246831, 0.0975312188696921, -0.484445230093051, 0.17499379460841, -0.267397312752276, 0.0850218541369171, 0.482483095186338, -0.236977543861276, 0.000199897091638094, 0.260236907071532, 0.39882628723415, -0.240266441585188, 0.297077637064355, 0.135046513297424, -0.1627853329066, -0.357084898634395, -0.298158797719972, 0.308792332905903, -0.0597030755040324, 0.458700844096692, -0.215013315237975, -0.233727642693829, -0.281027906183637, -0.456094314714038, -0.197544716643659, 0.0226750110110883, 0.462690974522284, 0.252597565212862, 0.16536756268083, 0.260347539587404, -0.309511025118137, 0.235563270634562, 0.0451877758842709, 0.0386581357187301, -0.485216414515618, -0.248726488259591, -0.329933369681572, 0.0909242222631475, -0.0699729596775494, -0.317722982708762, -0.302027252374865, 0.284419168278574, -0.455423351972514, 0.0542479410607991, 0.243025771431193, -0.330180370190892, -0.180589353212237, -0.16981933702895, 0.448522282800649, -0.41402469889228, 0.445382517178217, -0.440207039926775, -0.289972252335341, -0.413465661332188, -0.148184582641464, -0.00208600403484984, -0.119354354153301, 0.469016856165544, -0.128353326630175, 0.209473253190998, 0.12226369940629, -0.270699327051024, 0.0980991835983833, 0.238048647601251, 0.0680785295756463, -0.340915520581502, 0.213590052626211, -0.240953812765182, 0.11653100737253, -0.411955862722455, 0.477276971686195, 0.109200094036461, -0.121658664650057, -0.240698288386539, 0.260340048954903, -0.00398697566881216, -0.28140512311001, 0.163524998142377, -0.196106603574765, -0.365209849999553, -0.294925920693175, 0.139978807339605, 0.312119650989585, 0.0682263716247904, 0.318011934818113, -0.370984664411843, 0.0238639655454541, -0.0424519216074991, -0.312318430577448, 0.0183459923953883, 0.373603239856813, -0.302715353545625, -0.280448926178788, 0.220471188149381, 0.0579034429860112, 0.470353275515087, -0.312809545019882, -0.199551253443906, 0.484137799436264, 0.0740308571878009, -0.0468955716385867, -0.44386616308378, 0.208336678972198, 0.352814979588604, -0.387382820622269, -0.162371597819334, 0.181381504575587, 0.468731463877949, -0.170321958854712, 0.355682099561453, -0.216013113855251, 0.213591376614591, 0.163369160127448, -0.262740103687899, 0.00311200917183397, 0.483469090295966, -0.0742372286924201, -0.480579560585547, 0.415644908565231, -0.060728952767512, 0.138648927085867, -0.240772426982399, -0.426234651678632, -0.402121444178008, -0.291994021649992, 0.272703850261726, -0.113949651289896, 0.157752599714607, 0.188805327043704, 0.289956145921859, -0.189640476849969, 0.414871586521655, 0.184482936215883, 0.230763377725622, 0.183849972835886, -0.362109407388156, 0.426626282430301, 0.451359696581013, -0.0340511076844359, -0.0143047327911514, -0.0519056269575579, 0.0715977878250476, -0.372499068563589, -0.16640744512023, -0.258710788478257, -0.344608285361992, 0.030066203993411, 0.482028362678975, -0.281928850293565, 0.0793350161169316, 0.0690611318169568, -0.332390694622627, -0.116077171406616, 0.0416529918790847, 0.430406311140033, -0.310151241067861, 0.489219936622538, 0.0951408058520036, 0.136737693824518, -0.173783945797513, 0.447582008777122, -0.486629226251387, -0.223640719832214, 0.0399796052374148, 0.0471340403240107, -0.134542788527846, -0.470475956123656, 0.45587454357179, 0.0492538014686846, -0.134521893165338, -0.438127854361293, -0.0415921534077299, 0.0388502835038221, -0.0627969232749914, 0.487662564000716, -0.431551605597358, -0.352314611617263, 0.237797216568701, 0.347104937244899, -0.439893167290282, -0.252693881443248, -0.0855132488538381, -0.0593326497988542, -0.392773242052312, -0.281394068227846, -0.367171094395, 0.0254303210810508, -0.362795205100381, 0.283466221557348, -0.0117918306562796, -0.344670404738149, -0.172703877909962, -0.173725566047588, -0.353273988410361, 0.0578929793079646, -0.093355454259053, -0.199612327390542, 0.085453878302534, 0.277421995094708, 0.378264941839122, -0.375676335155129, 0.0933840626164937, -0.0737679647041594, 0.358971907409577, 0.0320740752662572, -0.410076475262765, 0.104745555552369, 0.446751017747749, 0.0584877242607532, 0.369052532076368, -0.415839073088524, -0.253497022796322, 0.239551908498991, 0.0690227596222194, -0.421035768715788, 0.0337416034207332, 0.0935659225392245, -0.359426685662029, -0.199108186159763, -0.104407697447304, 0.344230185109896, 0.381587220856396, -0.336028358948382, -0.43156750835081, -0.287237106496348, 0.221683325577176, -0.370246575921679, -0.0780668274837015, 0.387423510471833, 0.0693865475925945, 0.278797439147279, 0.0439386453766755, 0.426397287212599, 0.482218749031016, 0.433209916485173, 0.154258389032371, 0.495700768819026, 0.0828588242747648, 0.0698643943767579, -0.35411243186429, 0.0264400452493024, 0.0959193936095686, 0.0819906392655732, 0.408684436655444, -0.0938607877638798, 0.40299978957933, 0.0743588850199316, 0.24846374444119, -0.443831370987996, -0.494427483665634, 0.333100500187331, -0.348820611583258, -0.21357581042913, -0.0972147978840417, -0.422527878128493, -0.286175501700547, -0.0631373986162977, -0.125451112661328, 0.128657306133476, 0.304851706594924, 0.463481327119809, -0.299472098654252, -0.453049228351648, 0.47411438809205, -0.384812843700133, 0.0159368588654739, -0.221421872078499, 0.266836978057704, 0.14565409434916, -0.0753179684017237, 0.0627890780046385, 0.49719585336862, 0.0616943067949315, -0.34758259735431, 0.372169621151036, -0.247761532578833, -0.189184541165141, -0.26677821596896, 0.142362769542096, -0.210931706820696, -0.343842165145087, -0.121020152608424, -0.132870355286969, 0.392687495256795, 0.24417053182999, 0.115005667111578, -0.24552329842695, 0.0730346541657503, 0.439851719834115, 0.202594342797086, -0.271764758568743, 0.116683659100908, 0.411502500241571, 0.277053754564436, -0.324455744216053, -0.176023284244508, 0.0421171807109882, 0.0937024360623926, 0.299399991937846, 0.39700438223246, 0.123478186103355, 0.326488047732522, -0.395381145650536, 0.128946411773774, -0.06636654571836, 0.337226642806233, 0.063673674084138, -0.377687535551323, 0.017522332711573, 0.301085877552139, 0.40140831710841, -0.3027946815609, 0.215604621517549, -0.141084441679793, 0.195696640283206, 0.0561302538422982, 0.343497465245925, -0.330126619204359, -0.276502912832093, -0.00605331521409272, -0.225284919988398, 0.219970933104414, 0.322770666276147, 0.42326868203087, -0.280455107744257, 0.423266913795111, -0.467670353621037, 0.288671773346836, 0.486750056386505, 0.0446148537888148, 0.22419058045285, 0.225409777948624, -0.072817381169795, 0.244465091448608, 0.168125432736662, -0.172259660612559, -0.241332805671597, 0.221839703889818, -0.0616737839861688, 0.386928526031521, -0.445350256097719, -0.373601993383657, -0.436572568275143, -0.363597851388045, 0.31413857157088, -0.473061738787713, 0.407777284083016, 0.107057777372722, -0.377604049380723, 0.0938597367271544, -0.0138651030003451, -0.14067415550781, -0.188952287370103, -0.188208399771559, 0.112248747803134, 0.395454787824625, 0.495129580583544, -0.33691567621591, -0.0894429646571469, 0.00116636296332395, 0.303463055924624, 0.287496108076178, -0.358131460976495, 0.464541494550105, -0.431349498791863, -0.310601478185726, 0.234409300519797, 0.459803605330481, 0.177402163292933, -0.157342014735633, -0.226959559938769, -0.385820682712421, 0.21854044665909, -0.13278304533603, -0.00407581179789825, -0.390457847799833, 0.17032388249484, 0.178375251198817, -0.414111541498301, -0.311310461003311, -0.462816657272426, -0.0594214152914072, 0.181493483058101, -0.137208276680099, -0.422945569205426, -0.168759399692471, -0.150125871856956, -0.388224697549807, -0.360212320430146, 0.268049337878132, -0.139609776198709, -0.366454965694925, -0.202310963465474, 0.43430163061839, -0.431990362156885, -0.245038185859914, 0.455343697261429, -0.429594418455414, -0.455567212484517, 0.0865074090399064, -0.209391688524219, 0.43627738625102, 0.438932800580878, 0.273917395789104, -0.160586918314903, -0.123464986147579, 0.147090956908898, 0.517049852546766, 0.344734383228937, -0.0226599126103312, -0.268483607381685, -0.223050782768895, -0.519094885775819, -0.274664976134218, -0.0445927703663075, -0.150270094835396, -0.39400315471084, 0.256044391803333, 0.378315797202713, 0.228564414642417, 0.336431827560515, 0.142977657697909, 0.330450641661973, 0.396139812478439, -0.531450991366101, -0.340045703952199, 0.25953033004828, 0.272535438709516, -0.232571724343482, -0.28182593178459, -0.376830799513973, 0.079780754619657, 0.147830417275458, 0.0442645170457844, 0.468369931708605, -0.450588278800476, 0.0255644507037581, 0.364351278553829, -0.509386551847955, 0.201579578620386, 0.188136699005093, -0.134151265426295, -0.230079751875835, 0.153549282290426, 0.0655920579620622, -0.471937011900522, -0.44341254530228, -0.431579671798138, -0.0242409751397311, 0.215921396143378, -0.313647902370924, -0.248557726393435, -0.33160824593228, -0.199074325112906, 0.261929042222019, 0.125014798468652, -0.407700801939601, -0.48154547062893, 0.255680611509671, -0.370663392480427, 0.0843151092761931, 0.372636690372783, 0.23443607621356, 0.143428481530632, -0.140101356468315, 0.153398708012487, 0.157306908739476, 0.0324914435607483, -0.185922365991682, -0.115977406292684, 0.338325169713735, -0.326632744705118, 0.139277428690814, -0.30866581981187, -0.458165035318238, -0.039619005565954, -0.121703290605276, -0.313361028905927, -0.188600008087607, 0.466054044339006, -0.405528880640706, 0.223130147334491, -0.191779990097636, 0.0256238544324487, -0.478662956901682, 0.385045409887464, -0.164142926637808, -0.161711375130651, 0.256868546488681, -0.169119944289647, 0.443664176784674, -0.0176828140133078, -0.345310573142246, 0.416450779726828, -0.316350554889211, 0.273208855666788, 0.158751099729785, 0.0726233160680201, -0.258167089582476, 0.410485690743504, -0.11404825205752, 0.0834645536162493, 0.28681918152992, -0.423591704357281, 0.419915252350888, 0.445081173453085, 0.0109211775177271, 0.493577576393068, -0.242153970280487, -0.211288440167698, -0.217354010482072, 0.44960064297921, 0.17414525715432, 0.284895548896447, -0.426554163769449, 0.345358694322334, 0.0235579416910418, -0.294449190008252, 0.0609074164833372, -0.0773517530732499, -0.238206468350987, -0.191243010585291, 0.238929337341479, 0.481018360186853, -0.0764115213404291, -0.130291513364337, -0.45212385663493, 0.317111874379873, -0.418391966711734, -0.250006787953322, 0.321450727280208, 0.219443082850442, 0.316164960074795, -0.0794979520592576, 0.0834491143061053, -0.000205062464614624, 0.433713088246816, -0.252048118263111, 0.0922251542663578, -0.381258112745931, -0.116734572128185, -0.101241260740817, -0.419358894415753, -0.051180198826279, -0.451084781698312, -0.506030611444411, 0.214954206818427, -0.130653073457906, 0.342106655974524, -0.186741254087659, -0.291677231976918, -0.0592252180760549, -0.434405280368223, 0.362204347976045, 0.202750791683165, -0.445014649227782, 0.36538354112041, 0.252422919095054, 0.0960965340567634, 0.0640179115249491, 0.417180282815983, 0.253206739116099, 0.438044511412934, 0.480173710960052, -0.00182540915307779, -0.00886327630148407, -0.479584127286406, -0.218276634816285, -0.297743879245844, 0.0628130183469879, 0.437167394459203, -0.145822951749463, 0.0550946632680232, -0.0429891310430818, -0.393631296053798, 0.360015073262298, -0.325612145453197, -0.199891245697056, 0.394576285627215, -0.110119122685293, 0.0565974426173582, 0.176097357113915, 0.434165463970623, 0.256648246904008, -0.483405709527837, -0.0957408535421699, 0.181465733227744, -0.438127559195974, 0.292206608687235, 0.0232704771547227, 0.149759390649068, -0.403252312122982, 0.0263071367295733, -0.457007950885771, -0.305050331814739, 0.104494343215771, -0.0490743550635001, -0.383186270291761, 0.4550849404967, 0.0775137615620384, 0.498680246612766, 0.0191609425035002, -0.340301056822391, -0.221247516672276, -0.142914725803634, 0.3405652719645, 0.297093443703544, 0.107551288473377, 0.257249091254533, 0.311884721371505, 0.311962918888173, 0.0612189819602796, 0.420982904932263, -0.250701639449493, -0.457510957679379, -0.271975198236573, 0.330145001989499, -0.370381488133158, 0.40931189673485, -0.374680128518221, 0.329846198519426, -0.490867681752721, 0.0108784520605841, 0.161499359683391, 0.417617979209294, 0.278976643894048, 0.249317120946529, 0.050158462203984, -0.229428718512231, -0.020578656102364, -0.0762463172227559, -0.340999394341943, -0.196680777052275, -0.170806218186701, -0.0510088262978636, -0.442909116817582, -0.0109135062973464, 0.181360729737619, -0.134804951739561, -0.344191484344771, 0.00899218275189695, -0.422999957464881, -0.230735865975112, 0.453957125439741, 0.203128943203728, -0.394659192332516, -0.29183257061455, -0.124074934215136, -0.422718516493388, 0.472186855821363, 0.284080384614536, -0.251758952784972, -0.399064295796758, 0.334348740124955, 0.243222495180335, 0.456079347524843, 0.497678200333608, 0.0179043735594874, -0.141680508903703, 0.0984146189180378, -0.373927476506371, -0.186675393311197, -0.160830031055971, -0.220174286188868, -0.138404731188649, 0.158059243799433, -0.303853238210723, 0.0808728300874585, 0.286105516574135, 0.460657352344652, 0.195527669335957, -0.339846201339048, 0.333416923243642, 0.285127728133558, 0.13318713546036, 0.216704164249459, 0.244379018459017, 0.0263711241360725, 0.426010317898246, 0.328888909435528, 0.114574433094109, -0.0853281913947648, 0.0116097377389197, -0.227549833347503, 0.200333188624293, -0.352025051763494, -0.493130725402105, -0.00454143294972371, 0.0969559848433902, -0.0183594343274698, -0.429003769870284, -0.469455026625813, -0.222849346144825, 0.280388402435084, -0.428305655420001, -0.268555303225415, 0.19595087842763, 0.511837662497397, 0.069034026937243, -0.471347877035308, 0.39077396291875, 0.091960609723108, 0.0426092215556208, -0.419507467400083, -0.224009459295501, 0.13172943710753, -0.0783592262007634, -0.12234095403131, -0.240675649615017, -0.477455492581318, -0.286509802525527, -0.0793722436991328, 0.0335148587911275, 0.0349305062728696, 0.486653483541623, 0.178608263355562, 0.297729814424681, -0.440645525244841, 0.0710724090660782, -0.270125219970567, 0.152839777135973, 0.245300486506624, 0.500059973952259, -0.180104101921615, 0.370473211088049, 0.186465313464469, 0.326344860690549, -0.467156252996515, 0.182604393649166, -0.126185093227415, 0.473296816854624, 0.242966711132808, -0.492184669359477, 0.411418793782824, 0.506724316183882, 0.473972520960843, 0.363979259199554, -0.0977424850605566, -0.515824021916293, -0.424578535007354, 0.244075441412561, 0.165458483120952, -0.242206924053539, 0.101333482242577, -0.229479972975819, 0.127311650178564, -0.0555734028690335, 0.25050758544145, 0.298031500642199, -0.0963435331889456, -0.0650590098391176, 0.204787022982668, -0.0843634270681394, -0.154527972099015, -0.117722261405158, -0.375389367975106, 0.0495330985263332, -0.260752425689129, -0.30479244810988, 0.0803081161607959, 0.311238711163559, -0.154244642707478, 0.156256062533777, 0.368907637231963, -0.468722412828824, -0.0218773394831631, -0.0943055710906571, 0.150274827993588, 0.0528957891052197, 0.518453981807348, 0.3159138258146, -0.146527663364379, -0.460472604982579, 0.00312881401201692, -0.0147860290752688, 0.479296114420549, -0.0134423300915282, -0.0803081329309637, -0.458881500012329, -0.253417567131682, -0.315524343349716, -0.389153752051833, -0.242564017773611, -0.204102252083717, 0.40725308785032, -0.215995634372098, -0.199776631137416, 0.14805070813689, -0.00863708459866159, 0.349770111707395, -0.128187585981252, 0.123275443888412, -0.259264510483576, -0.0828312145722189, -0.169372720665427, -0.135650789447962, 0.494978418161712, -0.131734701481786, 0.0111233861746095, 0.297915514874337, -0.278422307419513, 0.335412773007464, -0.304594027597115, 0.365492398103667, 0.0931511226916003, -0.437481131932426, 0.114641692164391, 0.408815450988843, 0.354601630870406, -0.0802582666120116, 0.136002602452821, -0.307637998067993, -0.302047087100198, 0.441149485117057, -0.14330282086832, 0.149512971826686, -0.435085564599036, -0.132079554675658, 0.437138204622559, 0.254846030651177, -0.313332268703042, 0.234582547893541, -0.361100902201545, 0.216273763355097, 0.112395929197589, -0.31781783238876, -0.393557575191087, 0.135774685609159, -0.335025864569446, -0.348171551206606, 0.487506161413164, -0.401697454060997, 0.382011285721984, -0.250270703827747, -0.472300296149472, -0.118671058934098, 0.419403653893043, -0.0513805255021464, 0.191233305583948, 0.360806218302847, 0.111798841943745, -0.090220170821407, 0.304862833213489, -0.424527806192158, -0.300622866453421, -0.320719428762391, -0.0674395617759306, -0.209202172277629, -0.474809918479839, 0.160159909706701, -0.245032978359631, 0.118796953971941, -0.0517236926165402, 0.290887331767396, 0.152301536760181, -0.0324871461257107, 0.188112954881145, -0.0302506287252154, -0.333995998065189, -0.0868908233292585, 0.449995905535567, 0.499899236905442, 0.221997403389402, 0.292041490791926, -0.0519967666068374, 0.0299645802966224, -0.203769248920415, 0.438985924800762, 0.405297267932539, -0.504659179215228, 0.239972566032697, 0.151915495226728, 0.185719136404406, -0.431561744975062, -0.407499845493898, 0.236461760455904, 0.411670268893811, -0.432719304171583, 0.00703082149304401, -0.0558655559950992, 0.270540050973374, 0.307728838295569, 0.114115765318401, 0.0305554286164949, 0.354253184224247, -0.142216574940382, 0.143419445585375, -0.413046107345671, 0.0865153705752365, 0.0953682963836719, 0.203430979695643, -0.0611298400981124, -0.230229087915189, -0.211166908278482, 0.412353033518901, 0.144189603438477, 0.192129156357802, -0.441406273672785, 0.120183254882129, 0.172783017523627, 0.346904337640057, -0.00883098482122372, -0.112792605827737, -0.472943856043222, 0.413212426236183, 0.0934624676631119, 0.448846461142808, -0.125282069224584, 0.186997295840363, 0.405146587090447, 0.0201484811615929, 0.105469290933203, 0.466557396246788, 0.246260947558007, 0.160155693273128, -0.360213809298624, -0.111384350433733, -0.312665945943104, 0.383854654747411, -0.407025223894778, 0.385279009982916, -0.281332952812215, -0.162509884058931, -0.135552184102069, -0.194668252518524, -0.211431141127056, -0.11986578980207, -0.11225448162375, -0.345724425444329, -0.0431650325648469, -0.444271912150962, 0.378316841661822, -0.0515107871301853, 0.33011882060298, 0.0617124822643685, -0.2430658073393, -0.09876907310645, 0.0853756387896493, 0.109157192430006, -0.237190971463124, -0.0751496256771877, -0.234906916484485, -0.0961541905832773, 0.199185848926957, -0.4555892553589, -0.408380613991933, -0.0326936192589479, 0.0195849605030675, 0.110038493455199, 0.29980476398308, -0.238974131747809, -0.00491208250391537, -0.333879052003544, 0.0363621760514544, 0.289815099311629, 0.147901055995072, -0.34219958289971, -0.458798273867271, 0.22042747900532, 0.121865574271485, -0.324640366113057, 0.0613548403970022, -0.274416151929999, -0.273714596425815, 0.34456957125402, 0.132301999068725, -0.3396429780522, -0.369942150559311, -0.323402519333436, -0.0981149025056513, 0.204735182417518, 0.288188880776978, 0.0798605865189625, 0.133628710232825, 0.181915926430823, 0.125887810112748, 0.316813456246789, 0.135166522775317, -0.196784448944905, -0.285274284753507, 0.321222343681887, 0.37365559012967, 0.258379471506703, -0.112477402190844, -0.298846468516186, 0.0530738930297911, 0.214235072852522, 0.413268543179185, -0.458057403954614, 0.417207149544208, -0.396333864318352, -0.117272803005218, 0.371252813753468, 0.483477408847964, -0.438601138275946, 0.344531621004276, -0.474225403628429, -0.323558964101822, 0.347716512948393, -0.0947986112391792, 0.439927970938737, -0.159273048087985, -0.156808232466241, -0.273009345912053, -0.420134106262158, -0.0293870193897609, 0.409381468767366, 0.0352990743638203, 0.337138048430158, -0.319402365780583, 0.330363813905933, 0.0198883815768358, 0.226802183074218, 0.00764736678540784, 0.30719474941338, -0.178582413761122, 0.302740506039901, 0.354771186506163, -0.474571346211667, -0.207943091961376, 0.397876012950672, -0.248756552208466, -0.408100805709061, -0.245566157491383, -0.208659419425461, -0.183749598910475, 0.418378973421767, 0.0919208522558182, 0.0658422569216324, 0.337143229663236, 0.0722900325903646, 0.134021700496253, 0.287174954587551, 0.404252802875923, -0.215384108834483, -0.0159462175341818, 0.0334094310533447, 0.028771387413016, -0.213438621193705, 0.230107708323667, 0.141389005316924, -0.317105296604152, -0.443928216226223, 0.379309138035617, -0.410708949816601, 0.0826773798004919, 0.154183750632986, -0.13371224401072, -0.323055039499173, 0.239774899506043, -0.455156835951261, -0.313324604753866, -0.343661725573849, 0.0538016608000111, -0.00626070513877375, 0.176774403552593, -0.255506966394483, -0.414005379326451, 0.4283644526762, 0.256569028347274, 0.0535941661991639, -0.1800605814818, 0.4686643498017, -0.484028013794845, 0.105395735406129, -0.301782358163142, 0.229455099390078, 0.327520545921332, -0.281721617896762, -0.169891691037982, 0.290462610524152, -0.224787894445214, 0.0519788159715995, -0.204105086210274, 0.150879447537263, 0.228421982451938, -0.304181355481864, -0.275747560601332, -0.336426932213347, 0.214653039809615, 0.157694793428709, 0.0559337013640199, -0.0814487567407853, 0.322819498713643, 0.292467069715831, -0.118194181085391, -0.0206079361260126, -0.26779689202552, -0.0904071647714551, 0.106995969184629, -0.270674521159427, -0.0580714584739768, 0.100688517285095, 0.0386353662729943, -0.321077596755144, -0.180550789870589, -0.284643244548163, -0.459232325413719, -0.240619218589533, 0.391227439849399, 0.354133581307631, 0.326740703922896, -0.360529901838065, 0.352686333781912, 0.453328334968276, 0.265570131229987, 0.126509489380774, 0.359471780402368, 0.400073562910254, 0.264187303181462, -0.0147674133800233, -0.475910220715327, 0.423967145223054, -0.285655734884981, -0.403504598994148, 0.494993718586636, 0.39970161043378, -0.355237240816143, -0.27898995815009, -0.282316428818389, 0.216963976606368, -0.00208082436165199, -0.082561483546638, 0.116278941848903, -0.40063404198346, -0.151743229539213, 0.176667358976751, -0.479342793508147, -0.383577177832982, -0.165713834842798, 0.0136396386850844, -0.34657560244987, 0.458366885917692, -0.225539092882104, 0.360068173655703, 0.336073602965239, -0.0833369469748781, 0.0688093322311726, 0.369226292271427, -0.471547243475116, 0.252907996239475, 0.120355874836354, -0.167078624661874, 0.143674568727808, -0.376504267354047, -0.297883402047677, 0.0183272394199779, -0.114112926463332, -0.0561698509625644, -0.316804131013601, -0.0816755801150028, -0.431883238847561, 0.319650876173414, -0.453244112352656, -0.327648657784923, -0.145354383910657, -0.0908092628579561, 0.0332740601227002, 0.250125128473202, 0.105164621525761, -0.40520541178277, 0.108779229202972, 0.240832049460072, 0.058947649568477, -0.248087488922588, -0.170428876868431, -0.43544370599453, 0.149395313192914, -0.146478522047113, -0.241961520197813, 0.0796169311747516, -0.167508566347089, -0.222655503253451, -0.307517054564461, -0.0358528888771959, -0.401724612495417, -0.336330739640189, 0.274221888410674, -0.00728876847687997, 0.393837542042342, 0.328894739183377, -0.211977173496633, 0.0762080154108704, 0.43441832838065, 0.41545116369866, -0.0545139056470921, -0.164424345142365, 0.413292481154627, -0.397891952808124, 0.00583209310820123, -0.0730733691053442, 0.391261446325391, 0.317715611430281, -0.235724135921895, 0.435361055463565, -0.353318747064746, 0.379173852135431, 0.266141659880986, -0.10848771563508, 0.293567251111487, -0.361233209663317, 0.368723275205517, -0.467478721970554, -0.314712295101046, 0.103440174979746, -0.415645025977062, 0.29096574507835, 0.127085049681424, 0.0838925601540787, -0.425929378109633, -0.309555210637115, 0.134546434103663, -0.4685562012549, 0.356732582375146, 0.274963268678611, 0.304179968811111, -0.467968603873882, 0.313099758549208, 0.150673857380249, 0.306595488879954, 0.497440240670446, -0.348281746533474, 0.0469655150985072, 0.342134804582691, 0.331481290495146, 0.188275796773956, 0.0145703347630139, -0.486947829635269, -0.24316882776784, -0.184021729675509, -0.280504036726163, -0.101359986858895, -0.116961651096723, 0.199106557675323, 0.254539526884695, 0.461434670240355, -0.244506609972802, -0.108583396118406, -0.169058909019948, 0.329838618556894, 0.154703066523514, 0.206612469026173, -0.17058154040509, -0.471954704249257, -0.184859632367669, 0.292387587387295, 0.359817465236326, 0.461544336267535, -0.0106922013269236, -0.369195887758022, -0.385371173212943, -0.428463214975066, -0.385063768310968, 0.0850101111386949, 0.297416289708305, 0.487833241926429, -0.178544719553806, -0.315427347931744, -0.146193699280822, 0.415034939029736, 0.0708956674537136, 0.277734348446938, -0.129678869913183, -0.232162179300637, 0.354510352413408, 0.291730251066261, -0.24846485711097, -0.167665300270387, -0.397810989943245, 0.313533213834061, 0.0493523192356119, 0.140635822266636, -0.0237416888232072, 0.321499778340338, -0.348108601220003, -0.210424646600347, 0.322296369738084, 0.0192224278669909, 0.0328085322551469, -0.460906647127544, 0.328624831898429, 0.0530337167685078, 0.0237399770523142, -0.373963965975663, -0.298614576365154, -0.351984222816296, -0.216221754772692, 0.297993605862369, 0.401692974335371, 0.266706284958267, 0.139979389794161, -0.429079262041058, -0.462389696837584, -0.0840938480496843, -0.24105704889682, 0.376968718076576, -0.163708661060645, -0.438419361104453, -0.326465056662664, 0.0234101165660704, 0.0408524444982654, 0.0274827655067121, 0.35935532621078, 0.175774584839016, 0.0814517930063661, -0.0260069954795795, 0.095278473848141, -0.206563546651305, -0.0668812876413024, 0.00784093630865257, -0.334463127811655, 0.302232852579203, 0.151764119813109, -0.185287052153278, -0.413589892868693, -0.482138049314794, -0.246005628605376, -0.25571490393752, -0.433547602935484, 0.206494575229704, 0.00795200583895295, -0.0464584629733388, -0.0693582746057577, -0.164517274901512, -0.3264461759601, -0.0215684187233301, 0.103025519104221, -0.439647840773523, 0.0625568272371575, -0.225077319296579, 0.453284014460297, 0.260715730842536, -0.154312515470345, -0.490601584310923, -0.00175909162580923, -0.198857933608283, 0.193678390557728, 0.347965392213299, 0.0445842410179713, 0.227392419114426, 0.0527373033355629, 0.490341791878614, -0.135125106496329, -0.106147961973282, 0.101169412769922, 0.337746537214958, -0.0808433818541669, 0.222897355315693, -0.170503955180991, -0.258918999582026, 0.122974346681952, -0.407993757123125, 0.495128241831031, -0.032959631892368, -0.484541889272883, -0.412689092528396, -0.40315895988753, 0.0238726011122915, 0.00222076079911593, -0.396979788270304, 0.3709674854162, 0.0349263146216638, 0.230879626111537, -0.341803968344724, 0.0545569218483553, -0.0951788586541912, -0.0434546319504523, 0.142365704124032, 0.316472039472532, 0.28526804073959, -0.175816439872522, -0.0939710208186745, 0.199700855044509, -0.160940022049909, -0.346242728105859, 0.0176102139603395, -0.41133335647701, -0.463210312632476, 0.234313312328566, -0.164192713175059, -0.440725036869163, 0.380128163788527, 0.230856114407469, -0.178524173180817, 0.15194833402147, 0.361277771583422, 0.265587489011505, 0.378647116422023, 0.493940304961959, -0.0890699990974134, -0.295698973720753, -0.330194210554564, -0.154255368585817, -0.0584359707117248, 0.356424933698226, -0.482189011286101, -0.240537834232924, -0.293321138151605, 0.339295116178363, -0.303651728575887, -0.118798830834589, 0.276790914021801, 0.406425315843162, 0.0442280040794183, 0.416897440290496, -0.283054632499374, -0.107694612167633, 0.15606826388094, -0.186716903786509, -0.00215210323322196, 0.498644263948614, -0.439948647255054, 